nep4_zbl 4 C N O Si 
zbl 1 2
cutoff 5 5 102 102
n_max 8 8
basis_size 8 8
l_max 4 2 0
ANN 30 0
  2.0943332e-01
 -3.4488794e-01
  3.4930697e-01
  3.5095721e-01
  1.3357097e+00
  5.7480592e-01
 -5.5982292e-01
 -2.1963164e-01
  3.9830390e-01
 -1.5394281e+00
  1.2722833e+00
 -2.6539007e-01
  3.1952500e+00
  9.2978036e-01
 -1.4742275e+00
  6.6738999e-01
  1.3984332e+00
  2.1410590e-02
 -6.6816539e-02
  1.5657860e+00
 -1.5963609e+00
 -1.4845562e+00
 -4.7050530e-01
 -2.1413660e+00
  7.5982147e-01
  1.0428605e+00
  1.1859372e+00
 -2.9426157e-01
  3.4148517e-01
  8.8596386e-01
 -1.1661578e+00
  1.4021080e+00
 -3.6960015e-01
 -8.8053787e-01
  1.1773894e+00
 -2.5502334e+00
 -7.6591629e-01
 -4.0773067e-01
 -9.7775418e-01
 -2.2620861e-01
  7.7661282e-01
  1.2774955e+00
  5.9890455e-01
 -2.2585259e-01
  1.5176120e+00
  8.2886338e-02
  5.0441635e-01
  8.5424876e-01
 -2.8362906e+00
  4.5241913e-01
 -1.3996617e-01
  8.9129582e-02
 -2.9273710e+00
 -2.9232662e-02
  2.0212901e+00
  7.8624034e-01
 -7.3337972e-01
 -1.2596554e-01
  1.4027996e-01
 -7.3932683e-01
  3.6647084e-01
 -1.4902787e+00
  1.1200860e+00
  9.4554818e-01
 -6.9388992e-01
  8.1162825e-02
 -1.8649774e+00
 -4.5155507e-01
 -1.0497699e+00
 -1.4336492e-02
 -1.1009320e+00
 -1.7161757e+00
 -1.7402802e+00
  1.8974767e+00
  2.4375080e-01
  5.0459987e-01
 -6.0688478e-01
 -3.8877475e+00
 -6.7299610e-01
 -4.5219705e-01
  1.0601836e+00
  6.9256252e-01
  9.8175913e-01
 -8.4912665e-02
 -2.6330500e+00
 -2.0147280e-01
 -2.2293818e+00
 -5.0384320e-02
  4.9419859e-01
 -5.6993738e-02
  5.5118036e-01
  7.1472836e-01
  5.3864133e-01
 -1.2601691e+00
 -7.9501253e-01
  7.7976190e-02
  1.1682705e+00
  1.3857475e-01
  2.2761366e+00
  4.9209349e-02
 -1.8301558e+00
 -7.0150089e-01
  1.5496581e+00
 -5.5545288e-01
  8.0426627e-01
 -5.3320885e-01
  6.3316084e-02
 -7.4060810e-01
 -7.0471448e-01
  3.9390823e-01
 -1.6716336e+00
 -8.3004111e-01
  3.6592487e-01
  1.0384121e-01
 -1.9276507e-01
 -8.6967427e-01
 -4.7438231e-01
 -3.1535578e-01
  3.3396742e-01
  3.3255371e-01
 -3.2409341e+00
  1.2049726e-01
 -2.1333029e+00
  7.4561173e-01
 -1.8209714e-01
 -1.2428384e-01
  5.5180210e-01
 -8.1906962e-01
 -4.7808918e-01
 -5.2270871e-01
 -1.0940249e+00
 -1.0386217e+00
  7.9670703e-01
 -7.7256292e-01
 -1.0602468e+00
  7.7771164e-02
  3.4688604e-01
  1.0012463e+00
 -1.2521551e+00
  1.3970495e+00
  2.1515079e-01
  1.0521411e+00
 -1.9149122e+00
 -7.9501197e-02
 -8.6336130e-01
 -8.9162743e-01
  3.2672167e+00
 -1.4239947e+00
 -8.1964338e-01
  1.4655538e-02
  8.2253462e-01
  1.3374336e+00
  7.0133221e-01
 -1.7712286e+00
  7.6496500e-01
 -1.6885942e+00
  5.9875113e-01
 -3.3105549e-01
 -1.5149306e+00
 -5.5057341e-01
 -4.2062332e-03
 -4.3673399e-01
  1.2540565e-01
  1.1631908e+00
 -1.8462846e+00
 -1.3852220e+00
  4.9688160e-01
  8.2759953e-01
  6.0723729e+00
  6.2061578e-01
 -3.1966612e+00
 -9.8721719e-01
 -2.0096159e+00
 -6.6451794e-01
 -6.0617816e-01
 -5.7437826e-02
 -1.5282701e+00
  1.2674134e+00
  7.9029375e-01
  1.7790459e+00
 -1.5761569e+00
 -1.8890140e+00
 -7.6619858e-01
  3.5989305e-01
  1.0580423e+00
 -9.3398440e-01
  5.1784968e-01
  8.6941302e-01
  6.6531265e-01
 -8.9395308e-01
 -4.7095984e-01
  2.6484702e+00
  4.7764337e-01
 -2.5403225e-01
  4.5125079e-01
  4.8188880e-01
  1.4178977e+00
 -7.3889512e-01
  1.4505118e+00
 -1.1589481e+00
  6.5427035e-01
  3.5312995e-02
  3.5832247e-01
  8.7750554e-01
  5.6833726e-01
  3.9732784e-01
 -2.6568687e+00
  2.5165775e-01
 -2.9246831e+00
  8.0483538e-01
 -3.6519878e-02
 -2.7521811e+00
 -7.0916319e-01
  5.7858989e-02
 -4.5037094e-01
 -3.8627377e-01
 -2.4046355e-01
  1.1935577e+00
 -2.4393573e-01
 -9.5853281e-01
 -2.9541877e-01
 -3.5035616e-01
 -1.1134299e-01
  3.1409375e-02
  5.4546899e-01
 -2.1020563e-02
 -5.2296019e-01
  5.3387523e-01
 -4.3082011e-01
  7.5127119e-01
  5.6665671e-01
  1.1632337e-02
 -1.7471440e-01
 -4.6571511e-01
  5.2370224e-02
 -1.9654937e+00
 -1.5656184e+00
  6.6584707e-03
  8.1249990e-02
  1.0009055e+00
 -8.1987031e-02
 -6.7071927e-01
 -6.2176156e-01
  7.0601499e-01
  1.2845793e+00
 -1.0556161e-01
 -2.3511149e-01
 -7.9420142e-02
  8.6333819e-02
  2.1442354e+00
  7.0876323e-02
  3.2010242e-01
  1.0036434e+00
 -6.2967908e-01
 -1.3826880e-01
  1.3129930e-01
  3.4327582e-01
  5.2619126e-02
  2.4557300e-02
 -7.5764471e-01
 -1.9983040e-01
 -8.9161956e-01
  1.0233877e-01
  3.2104604e-02
  7.2595680e-01
  9.9470145e-01
 -1.1346816e-01
  1.1484637e-01
  4.9597335e-01
 -1.7468056e-01
 -5.8571357e-01
  7.0133245e-01
 -8.8698620e-01
  7.3800272e-01
  3.8112126e-02
 -1.7754761e+00
 -1.9739107e+00
 -1.1034188e+00
 -1.8987018e+00
  2.5724928e+00
 -5.1715571e-01
 -1.1480840e-02
  4.7047848e-01
 -9.0975195e-01
 -2.4172758e-01
 -3.1826222e-01
  1.7574386e-01
 -1.1745839e+00
 -1.6207562e-01
 -3.1358063e-01
 -1.1381302e+00
  2.5925997e-01
  1.1358680e-01
  1.4023201e+00
 -1.3396189e+00
  1.9718161e+00
  1.9995371e+00
  7.8267026e-01
 -4.9967310e-01
  6.5615708e-01
  3.3559749e+00
  3.4365839e-01
  1.5486103e-02
 -4.8850062e-01
 -1.4184998e+00
  5.8544272e-01
 -2.6167247e-01
 -8.3152956e-01
  1.5917623e+00
  1.7113696e-01
 -1.2818315e+00
 -4.3506810e-01
 -4.4492994e-02
 -7.9730928e-01
  1.4029188e+00
  8.7898648e-01
  2.0147158e-01
  6.3595605e-01
  1.1108440e-02
 -1.1574299e-02
  6.4899993e-01
 -1.2449111e-01
  3.6971816e-01
  1.0871021e-01
 -1.6876975e+00
  1.1056561e+00
 -1.6676168e-01
 -3.5160817e-02
  6.9268453e-01
 -2.0202813e+00
 -6.1656350e-01
  1.0806167e+00
 -2.1165082e+00
  2.1572210e-01
 -2.6077399e+00
 -1.2672625e-01
 -3.0294015e+00
 -2.9336369e+00
 -8.4312540e-01
 -9.2950410e-01
  1.8585480e+00
  1.4131111e-01
 -3.6281869e-01
  2.2817948e+00
 -7.4294603e-01
  1.7424802e+00
  1.6848819e+00
  3.2823665e+00
  1.6628210e-01
 -1.4640784e+00
 -3.0345184e-01
  1.4146532e+00
 -1.1511650e+00
  1.8549420e+00
  1.4528867e+00
  7.0581487e-03
 -1.8453196e+00
  3.5121390e-01
 -1.5026027e+00
  3.1900397e-01
 -1.1856446e-01
 -1.2102231e-01
 -1.2036895e+00
  5.9172856e-03
 -5.7926316e-02
 -3.1075090e-01
  2.6783326e-01
 -4.2146733e-01
 -1.3933978e+00
  3.1988373e-01
  7.8413230e-01
  5.0338566e-01
  1.9735029e+00
 -2.1747591e+00
 -2.2945629e-01
 -5.5130792e-01
  2.0546132e-01
 -1.7119987e-01
  1.9755792e-02
  1.1434439e+00
  1.5989524e-01
  1.4397340e-02
 -7.2857314e-01
  2.7365261e-01
  2.1199028e-01
 -3.6057889e-01
 -1.0014534e-01
 -6.0232556e-01
  1.2190192e+00
  3.3732507e-01
  1.5332049e-01
  1.3569748e-02
 -1.7195315e+00
  2.5290308e+00
  1.1819885e-01
  2.8365526e-01
 -1.3705056e+00
 -3.2084081e-01
 -1.9589569e-01
  6.6871077e-01
  1.8948584e+00
  1.8943844e+00
 -3.5164678e-01
 -1.9008732e-01
  1.6221339e+00
  1.6021861e-01
 -3.4624258e-01
 -5.5579156e-01
 -4.9462978e-02
  6.4540535e-01
 -4.6586242e-01
 -1.7933129e-01
  9.9798334e-01
  6.1827278e-01
 -3.8609117e-01
 -7.7000901e-02
  1.0940301e-01
  3.4499550e-01
 -1.0177019e+00
  4.7691323e-02
 -4.1631776e-01
 -1.2064814e-02
  5.6123370e-01
 -3.3658585e-01
 -5.1893705e-01
  8.3747752e-02
  2.2986829e-02
  1.7876644e-01
  9.6593738e-01
  2.9557067e-01
  4.8209211e-01
  5.5836225e-01
 -7.2212964e-01
  1.5474652e-01
 -1.1545250e+00
 -1.7081957e+00
 -1.2634802e+00
 -1.9555029e+00
 -4.7796526e+00
  9.7760719e-01
 -4.9581447e-01
  5.8398080e-01
 -1.0482239e+00
  1.2227502e+00
 -4.6852764e-01
  1.6931708e-01
  6.1914980e-01
 -3.2738799e-01
  1.8084083e-01
  2.2094612e+00
 -5.7715398e-01
 -4.6001721e-02
  1.3946754e-01
  2.1688148e-02
  2.9442537e+00
  2.3691137e+00
 -1.3841699e+00
  1.6268452e-01
  1.6605418e+00
 -1.2746016e+00
 -1.9237417e+00
 -3.9253694e-01
  1.2358346e-01
  1.1557153e+00
  2.3619175e+00
  4.2753020e-01
 -8.8002205e-01
  2.3089418e+00
 -1.8159940e+00
  1.5450339e-01
 -1.4972256e+00
 -2.2349422e-01
  2.9831462e+00
  1.6822225e+00
 -1.5618912e+00
 -6.3183975e-01
  2.6841266e+00
  1.1561479e-01
 -5.8260775e-01
 -1.4573160e+00
  2.2980785e-01
 -1.7565123e+00
 -1.9731429e+00
  6.7655343e-01
  1.3236915e-01
 -4.7272456e-01
 -1.4705307e+00
  2.3432205e+00
 -2.7603787e-01
  1.7697359e+00
 -2.4673010e-01
 -1.1826088e+00
 -4.8538765e-01
  2.1897781e+00
 -1.7545000e-01
 -6.2584484e-01
 -2.5578824e-01
 -1.2357727e-01
  1.9448381e-02
  1.9730307e-01
  5.5460446e-03
 -8.4533936e-01
  8.6104214e-01
 -6.0491580e-01
  4.4161925e-01
 -1.0345286e+00
 -6.8228740e-01
  1.4078928e+00
  1.5827686e+00
  9.9819982e-01
  7.5341773e-01
  3.5733423e-01
 -1.2045134e+00
  2.7904592e-02
  1.0262716e+00
 -3.4662724e-01
 -8.5091740e-01
  5.9689242e-01
  2.0958365e-01
 -3.3389685e-01
  4.8487574e-01
  7.1415015e-02
 -2.7712328e-02
  1.0464189e-01
  1.1877922e-01
 -2.0518420e+00
 -1.0897148e+00
  8.9661080e-01
  8.7585402e-01
 -1.0341424e-01
  5.1195972e-02
 -5.9620913e-02
  2.0169373e+00
 -3.8646884e-02
 -1.2325743e+00
  7.9074122e-02
  5.4564005e-01
 -3.0729061e-01
 -6.4459902e-01
 -1.7891318e+00
 -3.1886676e-01
  1.3533701e+00
 -4.8642322e-02
  2.9060919e+00
  6.7584527e-01
  9.8892516e-01
 -2.9654706e-01
  1.9833428e-01
 -1.2894146e+00
 -4.1449340e-03
 -7.9564214e-01
 -2.0567527e-01
  6.4099360e-01
  2.7045226e-01
  2.5047455e+00
  1.9119893e-01
  6.7076439e-01
  8.0090672e-01
 -1.2980419e+00
 -2.0263190e+00
 -2.6076442e-01
 -9.1312081e-01
 -6.0268939e-01
 -1.2760143e+00
 -3.6036215e+00
 -1.3196523e-01
  4.3177983e-01
 -7.9013750e-02
  7.0490994e-02
  1.5140976e-01
  4.1235748e-01
 -5.0770646e-01
  1.8103435e+00
 -5.4675400e-01
 -1.7548074e+00
  1.6231325e-01
  9.5911592e-01
  1.8881660e+00
  1.9890504e-01
  4.6060511e-01
 -2.0653975e+00
  2.3594275e+00
 -8.3736205e-01
  1.4787580e+00
  2.5937002e+00
 -1.1484095e+00
  2.6969370e-01
  4.3999073e-01
  6.1093754e-01
 -4.9572203e-02
 -3.5831513e+00
  5.7399858e-02
  3.3559808e-01
  8.6983985e-01
 -3.6737833e+00
 -8.6777532e-01
 -1.2384399e-01
  1.7600735e+00
  5.2138190e+00
 -1.5948014e+00
 -3.9535040e-01
  1.2867107e+00
 -7.9939204e-01
  3.7806255e-01
  9.8542087e-02
  3.3843353e-01
 -6.8986726e-01
  4.0539563e-02
  1.0803083e+00
  1.0149169e+00
  9.9920429e-02
 -2.1559670e+00
  1.0404497e+00
  9.7532131e-02
 -9.3991514e-03
 -3.0469987e+00
 -4.4442585e-01
 -9.6191090e-01
  1.4594960e-02
  3.2181489e-01
 -3.3586693e+00
 -1.3320011e+00
  6.4252853e-01
 -9.5277464e-01
 -6.5375641e-02
 -1.4671411e-01
 -3.2749064e+00
 -9.5775592e-01
 -1.3282650e+00
  1.4583215e+00
 -7.8411502e-01
 -6.2060958e-01
  1.6267092e+00
 -2.8212483e+00
 -8.4103930e-01
 -2.7670264e+00
 -5.9685111e-01
 -1.6639187e+00
 -7.0742890e-02
  1.3350303e-01
 -1.0211450e+00
  5.3336567e-01
 -5.7097989e-01
  1.0087637e+00
 -4.5874628e-01
  1.9560751e-01
 -3.6191642e-01
  2.9366803e-01
  4.8506945e-01
  6.7762338e-02
  1.6865632e-01
 -7.4213511e-01
  8.0705541e-01
  5.6457281e-01
 -2.7860689e-01
 -5.8431643e-01
  5.2917027e-01
 -1.7911944e-01
  1.8833961e-01
 -4.3984300e-01
 -5.2108608e-02
 -3.9355379e-01
  1.0646696e-02
 -9.2615646e-01
  1.0739096e-01
 -3.9550602e-01
  1.7757436e+00
  8.3025895e-02
 -4.0423021e-01
 -1.3930394e-01
  3.7320558e-02
  7.2492543e-03
 -2.2591082e-02
 -6.9309849e-01
  4.7616150e-02
 -3.6830634e-01
  4.4830868e-01
 -5.8962363e-01
 -8.2168937e-02
 -5.6294192e-02
 -4.2089561e-01
  2.4083194e-01
 -5.8894075e-02
  4.1750294e-01
 -8.5856324e-01
  2.0216677e-01
  1.2599868e-02
  8.1070296e-02
  7.4386850e-02
 -3.7098518e-01
 -1.1726023e-01
  2.0196784e-01
  3.5749251e-01
 -2.0450194e-01
 -3.3201673e+00
 -1.9367337e-01
 -4.0473416e-01
  3.1416327e-01
 -3.8471173e-02
  3.3870928e-02
 -4.1671881e-01
 -2.4598602e-02
  1.2245572e+00
 -4.3222219e-01
  1.1947212e-01
 -8.9981891e-02
  3.4849051e-01
 -8.7502021e-01
  2.8286436e-01
 -8.3573568e-01
 -1.0662400e-01
 -4.1831264e-01
 -3.1336063e-01
  3.7429646e-01
  2.2643661e-01
  1.1745591e-01
  2.5452903e-01
 -2.3765685e-01
  2.3693059e-02
  4.8100650e-02
  1.6352682e-01
 -1.6557370e-01
 -6.6591793e-01
  6.7351234e-01
 -6.4767933e-01
 -1.3351677e-01
  2.2846575e-01
  3.6308225e-02
 -3.9014935e-02
 -3.2481095e-01
  3.2203063e-01
  1.2331975e+00
  2.7648899e-01
  8.9852613e-01
  1.7226660e-01
  1.1823771e-01
 -6.4615285e-01
 -7.1919250e-01
  4.9115109e-01
  5.3455876e-03
  3.5449907e-01
 -1.6366940e+00
 -4.7257710e-01
 -4.6329609e-01
 -1.5569820e-01
 -9.9781430e-01
  2.1800028e-02
 -3.5071683e-01
  1.2469194e+00
  3.1647998e-01
 -1.4300604e-01
 -2.1699232e-01
  4.0495977e-01
  7.3083416e-02
  7.1064264e-02
 -7.0369869e-01
 -8.7544978e-01
 -3.6652687e-01
  8.0209303e-01
  1.7259284e+00
  1.0404137e+00
  1.3971949e+00
  1.6980387e-01
 -9.5401704e-01
 -3.4856224e+00
  2.1155694e+00
  1.6474913e-01
  9.5653600e-01
 -1.2252800e+00
  8.0301213e-01
  8.1139094e-01
 -8.8742450e-02
  1.6741148e+00
 -1.5716459e+00
 -3.8386364e-02
  7.8021330e-01
  2.3181753e+00
 -8.3542567e-01
  8.0084181e-01
  1.0957415e-01
 -3.4071541e-01
  1.0112439e+00
  7.6665616e-01
  4.7355336e-01
  9.8882645e-01
  1.5137641e-01
 -4.6289194e-02
 -9.7501779e-01
  8.7519981e-02
 -1.6197693e+00
  3.0804560e-01
  4.3745134e-02
  4.3311920e-02
 -1.2977469e+00
  8.8031560e-01
 -1.3408458e+00
  6.0069360e-02
 -2.8675535e+00
 -1.8295226e-01
 -4.7160741e-02
  2.1293117e-01
 -4.7324702e-01
  7.3317677e-01
  1.4466891e+00
  3.4193641e-01
  6.6055763e-01
 -1.3674580e+00
  3.9911117e-02
 -6.2607490e-02
 -1.2205501e-01
 -1.1362196e+00
 -1.3206945e-02
 -1.1910086e-01
 -1.2282767e+00
  4.2762838e-02
  1.2023458e-01
  8.8118398e-01
 -1.1407670e-01
  1.7848951e-01
  1.9467283e+00
 -4.2187475e-02
 -4.1641542e-01
 -7.4371523e-01
 -5.7947165e-01
 -1.0777622e+00
  3.4370008e-01
  1.6880453e-02
  5.1789856e-01
  3.6951154e-02
 -7.2053656e-02
  3.0293736e-01
  5.8181751e-01
  6.1637461e-02
  7.9389051e-02
 -2.2310233e-01
  6.5163773e-01
 -2.2927500e-01
 -1.4368056e+00
  7.2209932e-02
 -1.2778099e-01
 -4.8026025e-01
 -7.6973267e-02
  2.0403650e+00
  1.7491828e-01
 -2.7107462e-01
 -9.5778883e-02
 -1.9806954e+00
 -5.8589828e-01
 -1.8273944e-01
 -4.2428592e-01
 -9.7821141e-03
  1.3716088e-01
 -2.0736724e-02
  1.0430861e+00
  3.6718097e-02
  2.2397660e-01
  1.4318722e-01
  2.3501748e-02
 -3.5110772e-02
 -3.8593012e-01
  2.6294321e-01
  5.3195864e-01
  8.8290077e-01
  1.1527547e-01
 -8.0634475e-01
 -1.7753388e+00
  1.7958398e+00
 -1.3143111e+00
  8.0984688e-01
  9.2186493e-01
 -1.9748480e+00
  2.7100348e+00
 -1.3350312e-01
  5.5091017e-01
 -1.5246353e+00
  1.9015874e-01
 -1.5552243e+00
  8.8449466e-01
  7.8472227e-01
 -6.1739767e-01
 -6.7640686e-01
 -2.9596674e+00
 -1.9320861e-01
  6.8805087e-01
  4.2130497e-01
 -4.4596195e-01
 -2.8250790e+00
  1.8855171e+00
  5.0995266e-01
  2.8700250e-01
 -2.2030501e+00
 -2.3317823e-01
  1.0981297e+00
  1.4670716e-01
 -4.8148137e-02
 -7.5712848e-01
  7.4285793e-01
 -1.5013517e+00
 -1.2687273e+00
  9.4166130e-02
  1.0889852e+00
  9.7742510e-01
 -1.2631520e+00
 -1.1978954e+00
  1.1685608e-01
 -7.0127445e-01
 -1.3328716e-01
  5.4424036e-01
 -1.7275817e+00
  1.7447923e+00
 -6.8724388e-01
  5.3308302e-01
 -2.9302220e+00
 -2.0210412e-01
  5.9546739e-01
  1.1979295e+00
  1.6351461e+00
  5.8119994e-01
  6.9871381e-02
  3.3036003e-01
  6.1603010e-01
 -3.1665370e-01
 -9.5846766e-01
  2.7244325e+00
  4.4715610e+00
  1.0135516e+00
  6.0444206e-02
  5.1251370e-01
 -3.1965132e+00
 -1.1518742e+00
  1.7386031e+00
  1.0818309e+00
 -1.2151165e+00
  3.1718976e+00
 -1.9999018e+00
  1.5853628e+00
 -6.6853082e-01
 -2.5045240e+00
 -3.4046464e+00
 -9.8527110e-01
  6.3628685e-01
  2.5213096e+00
  2.8996217e+00
 -1.0759776e+00
  5.4357333e+00
  6.3810043e-02
 -6.0821956e-01
 -1.7844740e-01
  8.9496052e-01
 -8.3732706e-01
  2.7836256e+00
  1.4983987e+00
  2.3230119e+00
  2.5400588e-01
  3.7477615e-01
  9.3072532e-03
 -2.3273920e-01
  1.5738698e+00
 -4.3699464e-01
  3.3815935e+00
 -5.1341403e-01
  2.1054053e+00
 -2.2521856e-01
  3.7006995e-01
 -4.6411565e-01
 -9.7705102e-01
 -4.0372279e-01
  6.1409819e-01
 -1.7200582e+00
  1.4695721e+00
 -1.2195793e-01
  4.9121091e-01
 -2.8783700e-01
  6.1533155e+00
  4.0548208e-01
 -6.4352055e+00
 -3.7496131e-02
  4.2636933e+00
  1.3080910e+00
 -8.6122692e-01
  1.5682576e+00
 -5.1499736e-01
 -1.6821632e-01
  6.7252018e-02
  7.7704626e-01
  2.3054287e+00
 -5.5897480e-01
 -7.2416537e-02
 -8.6461449e-01
 -1.5537217e-01
  9.3989678e-02
  1.1809231e+00
  1.3290198e+00
  1.4476707e+00
  4.3411952e-01
  2.9811648e-01
 -9.1793217e-02
  1.8312775e-02
  7.8008091e-01
  1.1278182e-01
  3.7310469e-01
 -1.3717109e-01
  3.1773415e-01
  7.3258662e-01
  1.5552199e+00
  3.4167051e-01
  3.2057175e-01
  4.9792981e-01
  4.9819389e-01
  5.9205912e-02
 -1.5339795e-01
  1.1817704e+00
 -3.0217080e+00
  1.0915717e+00
  9.7351009e-01
  7.3926014e-01
  3.0034113e-01
  5.1633978e-01
  2.1750697e-01
  2.5605828e-01
  1.8848841e-01
  8.1555998e-01
 -7.2034776e-01
 -1.5214452e+00
  3.1095935e-02
  1.0572613e-01
 -2.2895791e-01
 -4.0785781e-01
  1.2858297e+00
  1.9116199e-01
 -7.1642172e-01
 -1.0095009e+00
 -2.0492043e-01
  2.9952325e-02
 -8.1989360e-01
  1.7504737e-01
 -1.0790092e+00
  7.8512627e-01
  1.1207997e+00
  5.9174731e-02
 -4.0768349e-01
 -1.0615136e-03
 -7.3374122e-02
  4.0270740e-01
  5.8537651e-02
  4.0340599e-01
 -3.4315434e-01
 -1.5704931e+00
  8.3269334e-01
  7.5460708e-01
  1.3807662e+00
 -2.8732300e-01
  6.0777622e-01
  8.6011715e-02
 -1.2470123e+00
 -1.1984150e+00
 -1.3647899e-01
  1.0785577e+00
 -9.0244788e-01
 -3.0888444e-01
 -6.6911513e-01
  1.5283682e+00
  1.1312775e-01
 -4.2951360e-01
 -3.6833931e-03
  6.6143942e-01
 -3.6621743e-01
 -1.2670561e+00
  1.4396433e+00
 -3.4279013e-01
  8.4413581e-02
  1.7700697e-01
  1.4251612e-01
  7.8084722e-02
 -1.5816501e-01
  6.3069522e-01
 -5.2983612e-01
  8.1709504e-02
 -5.4037660e-01
  3.1216517e-01
  4.0366316e-01
  9.9406868e-01
  2.3113990e+00
 -3.3327470e+00
 -1.2898340e+00
  9.3497932e-01
  3.1593661e+00
 -1.3848528e+00
 -9.0178365e-01
  1.1350960e-01
  3.0482531e-01
  2.2639892e+00
  4.3940079e-01
 -1.7616211e+00
 -1.9452269e+00
  5.6235725e-01
  4.5330784e-01
 -6.3498598e-01
  1.8925357e-01
  3.3208539e+00
  2.5425067e+00
  1.9909395e+00
  1.0342275e-01
  2.9707971e-01
 -4.0930006e-01
 -7.8972226e-01
 -1.0969304e+00
 -9.6520734e-01
  2.0087230e+00
  1.8628622e+00
 -1.1397045e+00
 -1.7268766e+00
 -1.7864225e+00
  3.3339986e-01
  2.1216558e-01
 -6.0792047e-01
  9.7734088e-01
  1.4041488e+00
 -2.0355110e-01
  5.0757777e-02
 -8.1565553e-01
 -2.4262033e+00
 -2.0756440e+00
 -6.0587275e-01
 -1.7894098e+00
  4.5052752e-01
  6.7352420e-01
 -8.4890330e-01
  1.2203733e-02
 -3.3497572e-02
 -2.8767890e-01
  3.9947100e-02
  6.0474910e-02
 -2.6451936e-01
  3.7855250e-01
 -9.0331155e-01
 -4.3477854e-01
  4.8412776e-01
 -5.1182395e-01
 -6.8780488e-01
 -4.1400409e+00
 -1.0323986e+00
 -5.5575383e-01
 -9.6146810e-01
  3.4493861e+00
 -5.0780499e-01
 -1.7851660e+00
  7.8964818e-01
  3.3612093e-01
 -1.2664822e+00
  7.1692920e-01
 -2.3926881e-01
 -4.7860706e-01
  1.3232269e+00
 -3.4108233e-01
 -7.7611482e-01
 -2.0907022e-01
  1.9256942e+00
 -2.5768564e+00
 -4.7172523e-01
  9.5322746e-01
  2.8351311e-02
  2.7478796e-01
 -2.5059698e+00
 -2.5290036e-01
  9.3531227e-01
  1.4975009e+00
  4.9105057e-01
 -6.5306830e-01
  4.9294186e-01
 -6.8388450e-01
 -8.1196851e-01
 -8.0249423e-01
 -5.9371525e-01
  3.0768970e-01
  1.0981019e+00
  3.6326328e-01
 -6.4859524e-02
  1.8783110e+00
  1.2240925e+00
  1.0128571e+00
 -3.9217350e-01
 -1.9146656e+00
 -1.9750452e-01
 -7.6027113e-01
 -1.0053942e-01
 -1.5851215e-01
 -1.1611018e+00
 -2.4167578e-01
  4.4773233e-01
 -1.5306637e-01
  1.1087559e+00
  1.9407241e-01
  8.0542350e-01
  1.2026086e-01
 -1.9650583e-01
 -3.7146071e-01
 -2.0943530e-02
 -7.8444660e-01
  7.7080987e-02
  1.2705159e+00
 -3.4606275e-01
 -8.9270905e-02
  1.1932643e-01
 -1.1436359e-01
  1.3512561e-01
 -1.9013341e-01
  2.1335380e-01
 -7.9304278e-02
 -2.1247581e-02
 -2.1530173e+00
  9.7113431e-02
  4.7298902e-01
 -3.3315256e-01
 -2.0351110e+00
 -1.5067357e-01
  5.7505909e-02
  8.2444543e-01
  3.1757560e-02
 -1.3414918e-01
  8.4874526e-02
 -2.0120570e-01
  7.7794127e-02
 -6.4294833e-01
  4.7124121e-02
  2.2510889e-01
 -8.2668260e-02
 -1.9447485e-01
  2.0497158e-01
  3.8795727e-01
 -2.1006705e-01
 -7.1106684e-01
 -5.1290613e-01
 -3.7513423e+00
  3.6428192e-01
 -5.6314513e-02
 -2.1462534e-01
 -1.6264011e-01
 -1.4580272e+00
 -2.1493837e-01
 -1.3363054e+00
 -2.6489475e-03
  3.7535570e+00
  5.7763201e-01
  2.3260480e-02
 -2.5156628e-02
  7.5812960e-01
 -7.3971963e-01
 -1.0795623e+00
  1.0275568e-01
  3.4870110e+00
  2.5787655e-02
  1.1821952e+00
  3.2362118e+00
  1.8490310e+00
 -6.9019681e-01
  2.8526981e+00
 -1.1280283e+00
  4.1173571e-01
  6.7154640e-01
  1.7169132e+00
 -2.3841712e-01
  1.2477120e-01
  2.4180586e+00
 -1.4748063e+00
 -2.2552404e+00
  2.8796124e-01
 -1.1395589e+00
 -1.2893665e+00
 -1.5901810e+00
 -4.4673783e-01
 -2.9119498e-01
 -7.9715334e-02
 -2.2977402e+00
 -1.3686366e+00
  2.6580825e-01
  1.8603313e-01
 -2.4487958e+00
 -6.8645805e-01
  1.4394109e+00
 -4.0346467e-01
 -2.2541471e+00
  7.7522039e-01
 -2.2550378e+00
 -1.0833217e+00
  1.4387316e+00
  8.9198554e-01
  2.2067018e-01
  1.0442463e-01
 -5.2066278e-01
  2.8440304e-04
 -8.8327406e-03
 -9.3646437e-02
 -1.5065366e+00
  7.1095832e-02
  5.9439456e-01
  3.4082546e+00
 -9.0316683e-02
 -7.5925308e-01
  5.8034414e-01
  4.1613966e-02
 -5.3380227e-01
 -2.6046222e-01
 -1.0850248e+00
 -4.4939089e-01
 -7.2450024e-01
  5.3841734e-01
  2.3745470e-01
 -2.6528910e-01
  9.2844866e-02
 -3.2274374e-01
 -2.0289149e-02
  6.6466546e-01
  8.6387396e-01
 -2.4593294e-01
 -4.5881409e-02
  1.1748552e-01
  1.7886220e-01
 -5.8581382e-01
 -1.4186078e-01
 -1.1502044e+00
 -1.5107384e-02
  2.0495120e-01
 -1.3389488e+00
 -2.1129625e+00
 -1.4354561e-01
 -1.2736727e-01
 -9.7510815e-02
  1.1153426e+00
 -7.1521455e-01
  5.8292270e-01
 -6.3809782e-01
 -4.0638670e-02
 -3.5037464e-01
 -6.3201472e-02
 -8.5831016e-01
  1.1377520e-01
 -5.5706513e-01
  9.9949336e-01
  1.8464550e-01
  1.7886355e+00
  2.2022547e-01
  4.6341144e-02
 -9.8068409e-02
  1.7897058e+00
 -5.2673981e-02
 -7.6756224e-02
  2.6715076e-01
 -3.8767125e-02
 -6.1248362e-02
  3.5726795e-01
 -1.0788315e-01
  9.7449976e-01
 -3.9323184e-01
 -4.3961084e-01
 -6.3009459e-01
 -1.7078367e+00
 -1.7776008e-01
 -1.0252714e-01
 -3.2173282e-01
  3.9785022e-01
 -2.5429678e-01
 -7.8904204e-02
 -2.3844592e-01
 -1.5679424e-01
  2.3020732e-01
  1.9803254e-02
  9.6549973e-02
  2.2923965e+00
  2.3452694e-02
  1.4978465e+00
  4.6516451e-01
  2.0607531e-01
  6.4778316e-01
 -9.2414953e-02
  4.3700546e-01
 -3.9028984e-01
  6.8436079e-02
  5.3741623e-02
 -2.4437339e+00
 -1.1785539e+00
 -1.7816900e-01
  6.5350562e-01
  6.4573663e-01
  1.0208368e-01
  1.2891920e+00
 -1.2014337e-01
 -5.4328465e-01
 -4.3833134e-01
 -6.1496091e-01
 -8.3112001e-01
  8.8965848e-02
  2.8559494e-01
 -7.6210976e-02
  6.0559928e-01
  1.1910134e-01
 -7.1445264e-02
  2.4723763e+00
  2.8368008e-01
  3.6098528e-01
 -5.7775382e-02
  2.8577656e-02
 -4.8423615e-01
  1.4881567e+00
 -1.2048882e-01
 -7.9355985e-01
 -2.5956619e+00
 -1.0032743e+00
  1.0969056e-01
  1.2557700e+00
  3.0728793e+00
  6.5077329e-01
  1.1855274e+00
 -4.8155695e-01
 -7.1276508e-02
  1.7825656e-01
 -8.8183314e-01
 -2.7979225e-01
 -9.5921010e-01
 -4.5699441e-01
  5.4150897e-01
  1.3795125e+00
  2.0180664e+00
 -8.8294250e-01
 -2.8537846e+00
  1.1155393e+00
 -3.5853475e-01
  2.3570397e+00
  1.0952220e+00
 -2.4562110e-03
  1.1282697e+00
  4.8967445e-01
  4.1002467e-01
 -5.8569717e-01
 -1.0082102e+00
  1.4600086e+00
 -1.5823579e+00
  1.2072190e+00
  2.3610231e-01
  8.6249399e-01
 -1.0971665e+00
 -4.8642334e-02
  8.7401696e-04
 -1.4956322e+00
  4.8193997e-01
  3.2209826e-01
 -1.5104290e+00
  3.9754137e-01
 -7.6605804e-02
  6.7958784e-01
 -1.5468848e-01
  1.4998157e+00
 -9.4173383e-03
  2.8175110e-01
  1.1803836e+00
 -1.5926539e+00
 -3.0903494e-01
 -4.9170488e-01
 -5.4980516e-01
  3.3125100e-01
 -2.4846214e-01
 -1.2309101e+00
  9.6686500e-01
 -4.8004511e-01
 -2.1374156e-01
 -7.8631133e-02
 -6.9980657e-01
  4.6872225e-02
 -1.7322993e+00
  1.6752681e-01
 -1.5993457e+00
 -5.0592154e-01
  8.5623062e-01
  1.7233343e-01
 -3.1031623e-01
 -1.7519398e-01
  7.3838574e-01
  5.6860741e-02
 -7.5947016e-01
 -3.5129614e+00
 -9.4788611e-01
  1.2858596e+00
 -2.2430795e-01
 -9.3645178e-02
 -1.2734053e+00
  2.0451005e+00
  6.0623801e-01
 -3.1824852e-03
 -1.6893233e+00
 -2.9192108e-01
 -1.3807303e+00
 -5.8964604e-01
 -1.1978086e+00
 -2.3983946e+00
  2.0418485e-01
  9.6845210e-01
 -5.5139494e-01
 -2.6089432e+00
 -2.5443321e-01
  7.1037459e-01
 -1.1575254e+00
 -8.6131793e-01
  3.1311405e-01
 -1.5151182e+00
  2.3132019e+00
 -7.3135436e-01
 -4.3757239e-01
  3.2842079e-01
 -1.5523179e+00
 -7.1199262e-01
 -2.6693406e+00
  2.8893539e-01
 -1.2002027e-01
 -2.1809902e+00
 -1.4957461e+00
  1.9865443e-01
 -5.8528465e-01
 -1.3086540e-01
  5.8148372e-01
 -9.8026174e-01
 -3.2244551e+00
  9.0298377e-02
  4.6892649e-01
 -2.3167269e-02
 -4.8245424e-01
 -7.7469152e-01
 -4.3360122e-02
  1.1425004e+00
 -1.7307557e+00
  9.3903460e-02
 -2.9537040e-01
  9.7527660e-02
 -7.6505810e-01
  2.1064565e+00
  1.0941688e+00
 -3.3169234e-01
  6.5908864e-02
 -1.8958318e-01
  1.4117593e+00
 -2.0101969e-01
 -1.6785256e+00
 -5.1511800e-01
 -1.9687946e+00
 -1.4177827e+00
  2.0195579e-02
  1.1637778e-01
 -5.9871846e-01
 -1.9130105e-01
  6.9668546e-02
  1.6338967e-01
  3.7288681e-01
  7.8070420e-01
 -2.6516311e-02
  2.8356397e-01
 -1.7693137e-01
 -4.7368878e-01
  6.3355458e-01
 -4.5715639e-01
  1.0042533e-01
 -1.6330314e-01
  6.3982832e-01
  4.5976642e-01
  4.0524721e-01
 -2.6746452e+00
  1.3917406e-01
  2.6152861e-01
  6.0400254e-01
  9.8159881e-03
  1.3612568e-01
  1.5424265e+00
  1.0939182e+00
 -1.0818232e+00
 -4.0983839e+00
 -3.2242641e-01
 -1.7667284e+00
  7.8295267e-01
  9.7343850e-01
 -7.6459652e-01
  1.3788391e+00
 -1.1177596e+00
 -2.3789434e+00
  9.2462289e-01
 -4.1911885e-01
  8.4592617e-01
 -2.1843014e-02
 -2.0041928e+00
  7.2691226e-01
 -1.2609736e+00
  1.7178041e+00
 -3.4659548e+00
 -1.2220097e+00
 -5.4585099e-02
  7.2883207e-01
  2.3298900e-01
 -6.9266653e-01
  4.3262300e-01
  1.1679125e+00
  1.2052017e+00
 -4.4368255e-01
 -1.0558578e-01
 -1.4313513e+00
  3.4482479e+00
 -4.8327217e-01
 -9.4367027e-01
 -1.0263720e+00
  2.1461523e+00
 -3.7863830e-01
  4.5803013e-01
 -8.4094197e-01
 -7.0527005e-01
  1.1795931e-01
 -1.1801715e+00
  9.1940165e-01
  4.8150563e-01
  1.8078381e+00
 -1.5023286e+00
 -4.3700945e-02
 -1.0120857e+00
  1.2311141e+00
  3.0815944e-01
 -1.7139211e+00
  5.5277675e-01
 -1.3176672e+00
  1.3831298e+00
 -2.5505538e+00
 -6.0773432e-01
  3.4882060e-01
 -1.1913860e+00
  2.6126680e-01
  2.3275621e+00
 -2.0793495e-01
 -1.8265793e+00
 -2.5645344e+00
  4.2762890e+00
  1.6677091e+00
 -3.0738831e+00
  1.2604345e+00
  1.2654917e-01
  5.6506109e-01
  1.5476171e+00
 -3.8513553e-01
  6.5954947e-01
 -2.9357467e+00
  3.3933073e-01
  2.1606669e+00
  2.8819344e+00
 -1.7168435e+00
 -1.7746425e+00
 -1.7226789e+00
 -7.3613131e-01
  4.4578500e+00
  2.1483452e+00
  3.1768603e+00
  8.3490020e-01
  4.0950270e+00
 -1.4813159e+00
 -1.2816823e+00
  9.6972644e-01
 -9.0398270e-01
 -3.8205106e+00
 -9.5800686e-01
 -5.8261240e-01
  2.0940993e+00
 -2.4530160e+00
 -4.3760753e+00
  2.5132451e+00
 -3.2504461e+00
 -4.1203227e+00
 -3.1123261e+00
 -1.0124500e+00
 -1.1069717e+00
 -3.3531966e+00
  5.7430983e+00
  1.2068819e+00
 -2.0901845e+00
 -3.0725029e+00
  3.7900043e+00
  3.9678822e+00
  3.2571888e-01
  1.9687935e+00
  1.0563234e-02
 -5.1632900e-02
 -2.9820395e-01
 -5.4686344e-01
  9.8171405e-02
 -3.3727193e-01
  5.6472730e-02
 -4.5135331e-01
  1.8922498e+00
  8.4498987e-02
  4.9016681e-02
  1.1958081e-01
 -3.6454478e-01
 -4.9498069e-01
  1.0544378e+00
  1.8883055e-01
 -3.7995197e-02
 -5.2739018e-01
 -3.7919244e-01
 -5.5532277e-01
  7.7751511e-01
  7.5884992e-01
  9.9954754e-02
  4.6108723e-02
  3.5915375e-02
 -2.0624761e-01
 -7.4945247e-01
 -3.4167600e-01
  1.3496386e-01
 -3.3690661e-01
 -2.3890650e-01
  1.3723270e+00
  5.8022863e-01
 -3.7383926e-01
  2.6701194e-01
  2.7440989e-01
  6.2684387e-01
  5.3313553e-01
  3.8487005e-01
  9.7981918e-01
 -1.2440947e+00
 -1.0313957e-01
 -1.6188985e+00
  1.9795987e-01
  5.7041067e-01
 -4.4165793e-01
  1.0623953e+00
  2.4770005e-01
  3.6936447e-03
  3.4683999e-01
  5.7706392e-01
  5.5768597e-01
  5.3831883e-02
  5.5819321e-01
  2.6109698e-01
  3.4572554e-01
  3.1707499e+00
 -1.4310391e+00
 -3.5918498e+00
 -1.7183961e+00
 -9.4217807e-01
  3.0806372e-02
  4.6426123e-01
  2.3611152e-01
 -1.3639665e+00
 -4.4882607e+00
 -8.3224934e-01
  2.3721644e-01
  3.5858801e-01
 -3.7501040e-01
 -5.2146530e-01
  4.0998453e-01
 -7.8342117e-02
  4.9515761e-02
 -4.0590863e+00
  1.7089144e+00
 -1.6206783e+00
  5.5859131e-01
 -6.9515568e-01
  2.3996084e+00
 -3.1252423e-01
 -6.9995886e-01
  2.3375639e-01
 -2.3821075e+00
 -1.1324937e+00
  1.2264997e+00
  1.7212175e+00
  3.2453790e+00
 -2.7369730e+00
 -1.5252522e+00
  3.8583347e-01
  8.5452545e-01
  3.1776920e-02
  1.5822840e-01
  4.9929872e-02
  7.6019293e-01
  6.6508549e-01
 -6.7920357e-01
 -7.1748877e-01
 -2.9005009e-01
 -2.9314679e-01
  2.4336495e+00
  8.8597423e-01
  2.0948346e+00
  7.3664361e-01
  1.6050791e+00
 -5.2724880e-01
  8.4570622e-01
  2.0892425e-01
 -1.7285057e-03
 -2.5704432e+00
  2.5093925e+00
  8.5233170e-01
  3.0303147e+00
  7.3624027e-01
  1.7128080e-01
 -1.6504456e+00
  2.2902045e+00
  2.8656381e-01
  3.1726248e+00
  1.3000220e+00
 -2.4964777e-01
 -1.9003737e+00
 -9.1539139e-01
  1.2221059e+00
 -1.9744581e-01
 -8.1820190e-02
 -6.3579726e-01
 -2.1672003e-01
  1.1815703e+00
 -4.7426406e-01
 -3.6519110e-02
 -1.6766839e+00
 -2.2389297e-01
  8.2852721e-01
  1.4410667e-01
 -2.5977634e-02
  3.5041308e-01
  1.3016607e+00
 -1.0087838e+00
  5.5895096e-01
  2.1100135e+00
 -4.8208758e-02
  7.1862090e-01
 -1.5622069e+00
  1.6643377e-01
  1.1335413e-01
  4.0617353e-01
 -1.8282481e-01
  8.2079627e-02
  2.9365078e-01
 -5.6227863e-01
  4.3036750e-01
 -2.3194826e-01
  1.0945077e-01
 -4.5753887e-01
  2.2489440e+00
 -6.9260544e-01
 -5.5876225e-01
  6.5941669e-02
 -3.4234419e+00
 -7.5451732e-01
  1.7546780e+00
 -3.0184932e+00
  6.2591779e-01
 -1.2072710e-01
 -7.1471947e-01
  7.5384337e-01
 -2.8298971e-01
 -4.4894648e+00
 -7.7533710e-01
 -8.1601506e-01
  2.2912866e-01
 -2.5893530e-01
 -1.2637438e+00
 -2.1964581e+00
 -1.5564578e+00
  1.3053190e+00
 -1.5577334e+00
 -4.3844655e-01
 -2.1352254e-01
 -8.4359296e-02
  2.1124003e+00
 -7.9347247e-01
  1.0150142e+00
 -3.9839947e+00
  1.6909456e-01
  6.9797915e-01
 -1.9803584e-01
  5.7199556e-01
  1.1581960e+00
  1.5272781e-01
 -1.4671842e+00
 -2.7006444e-01
 -1.1078519e+00
  6.0882014e-01
 -3.6636281e+00
 -1.0970702e-01
 -3.6286467e-01
  1.0073849e-01
 -3.3549294e-01
 -1.2948862e+00
 -6.1394084e-02
 -9.2021054e-01
 -1.4304031e+00
 -4.7187668e-01
 -1.8175604e-03
  2.3030439e-01
 -2.7992377e+00
  1.1747515e-01
 -4.8035818e-01
 -5.8735031e-01
  2.8171890e+00
 -4.8968080e-01
 -2.0437257e+00
  6.3618213e-01
  3.0285364e-01
 -1.7469271e+00
  5.3140068e-01
  1.1002093e-01
  3.2536700e-01
 -3.3787721e-01
 -3.8239950e-01
 -3.6892277e-01
 -1.7183223e+00
 -6.4287812e-01
  6.5651746e-04
  2.4535964e-01
  1.1822633e+00
  2.9483077e-01
 -3.7027986e-04
  4.0738598e-01
  6.8461828e-02
 -6.4654857e-01
  3.6797044e-01
 -6.1637563e-01
  1.0065541e+00
  4.5519996e-02
 -7.9084754e-01
 -7.3896360e-01
  4.2596692e-01
 -1.8695468e-01
  1.0924947e-01
  6.3953149e-01
  7.6555699e-01
  5.5851340e-01
 -6.1551645e-02
  5.2337819e-01
  1.8160476e-01
 -8.4651685e-01
  3.9691290e-01
 -3.5601532e-01
 -3.4485000e-01
 -1.9754100e+00
  9.6675232e-02
 -3.2079911e-01
 -4.3581936e-01
 -4.3526560e-01
 -1.4171463e-01
 -1.6781257e-01
  2.6203358e-01
 -3.8155187e-03
  6.1426681e-01
 -1.8051643e+00
  9.8587811e-02
 -6.8087512e-01
 -7.2070914e-03
  2.9798889e-01
  8.4261119e-01
  1.0170688e-01
  4.9871013e-01
 -5.1254482e+00
 -8.9219585e-02
 -3.6629349e-01
  6.9975150e-01
  2.4076736e-01
  1.0663600e-01
  6.3325691e-01
 -2.3287828e+00
 -2.9448754e-01
  6.4553279e-01
 -1.9489480e+00
 -5.4102957e-01
  8.7997431e-01
 -1.0082829e-01
 -3.6402604e-01
  3.9522925e-01
  5.1460671e-01
 -5.4260850e-01
 -8.4277749e-01
 -1.1645271e+00
 -3.4716052e-01
  8.1128836e-01
  3.0551463e-01
  2.4298754e-02
  1.0919072e-01
  1.3939078e+00
  8.8681936e-02
  3.6567265e-01
  6.6129273e-01
  6.8318683e-01
 -5.5804826e-02
 -7.0343798e-01
  3.0263850e-01
  7.9211396e-01
  6.7098331e-01
 -5.4731530e-01
  5.9506428e-01
  5.4139757e-01
 -4.0285856e-01
  1.1576186e+00
  6.3885117e-01
  8.5415047e-01
 -3.1820902e-01
 -2.0462694e-02
  3.2415569e-02
 -3.3892739e-01
 -6.7792678e-01
 -2.3458466e-01
  5.8922386e-01
 -1.9631910e-01
  4.7195420e-01
  1.8203678e+00
 -3.1288922e-02
 -2.6775748e-01
 -1.2348714e+00
  6.9213666e-02
 -1.2642227e+00
  1.7262657e+00
  1.2442312e+00
  5.4426867e-01
  2.7026677e+00
  2.0248876e+00
  4.8541108e-01
  2.9230132e+00
 -3.2426976e-02
  1.4827142e+00
 -7.8377473e-01
  7.6530680e-02
  8.9868045e-01
 -1.4079190e+00
  1.0522037e+00
  6.2223810e-01
 -3.8959181e-01
  1.6498812e-01
  5.4559517e-01
 -3.3395299e-01
  4.5978658e-02
 -3.0499369e-01
 -2.9502292e+00
 -1.4767597e+00
  7.9659867e-01
  1.0636649e-01
  9.9390221e-01
 -6.0546976e-01
 -1.8897111e+00
 -3.5857695e-01
  6.2832546e-01
 -1.0268438e+00
 -1.4714940e-01
 -1.0931772e-03
 -6.7533845e-01
 -1.8845186e+00
 -1.0821240e+00
 -4.7374290e-01
  3.3491943e+00
 -1.6077713e+00
 -1.0194935e+00
  5.3998041e-01
 -1.4499483e-01
 -1.4739829e-01
 -7.7233469e-01
 -4.8125473e-01
 -1.7023085e-01
  5.0629842e-01
 -1.1821149e-01
 -1.3540566e+00
  3.3609593e-01
 -3.4583351e-01
 -5.3711772e-01
  2.5092426e-01
  3.5937533e-02
  1.5082908e+00
  1.1078709e-01
  7.1112323e-01
 -1.5988469e-01
 -3.8429525e-01
  4.1195506e-01
 -2.1668734e-01
 -1.7962262e-01
 -3.8446596e-01
 -7.0560747e-01
  8.0101699e-01
 -5.6869648e-02
 -1.5616186e+00
  2.5720239e-01
  2.6575327e-01
 -7.0505220e-01
 -1.7114868e+00
  7.7663893e-01
 -2.1628168e+00
  9.1840208e-01
 -1.1252715e-01
 -1.1913980e+00
  4.9971884e-01
  6.8923658e-01
 -2.9787961e-01
  4.9029339e-02
  7.4310994e-01
  1.7427444e+00
  4.5903996e-01
 -3.5963371e-01
  1.1551856e+00
 -7.6104403e-02
  4.2755812e-01
 -4.6663260e-01
 -4.0332985e+00
 -8.1437600e-01
 -2.5038414e+00
 -1.9682635e+00
 -4.6113938e-01
  1.2737238e-01
  3.9177853e-01
  9.9429339e-01
  4.2675480e-01
  5.6914312e-01
  1.1700518e-01
 -1.5961866e+00
  1.1511165e+00
  4.4998704e-03
 -1.3136545e+00
  2.3959363e-01
 -1.1031747e+00
  4.9460694e-01
 -9.9842352e-01
  1.4790100e-01
 -5.8823562e-01
  1.1599067e+00
 -4.8864290e-01
  8.5958731e-01
 -7.8072095e-01
  1.0289736e+00
  1.7777024e-02
  8.2853094e-02
  2.1778066e+00
 -1.1742048e+00
 -6.3502467e-01
  1.2427692e-01
  7.4484074e-01
 -2.3206065e+00
  1.1285396e-01
  9.0378672e-02
  1.1177001e+00
 -8.4184192e-02
 -3.3736773e+00
 -9.7452933e-01
  1.7521204e-01
 -1.7729868e+00
  1.7122935e+00
 -1.2343397e+00
 -1.5735391e-01
  3.1763610e-01
  1.1359388e-01
 -2.3993534e-01
 -4.2240712e-01
  1.8372284e+00
 -1.3582376e-01
 -1.2332530e+00
 -3.3967426e-01
 -4.2667103e-01
 -1.6339142e+00
  4.4106933e-01
  9.1378653e-01
  1.3558787e-01
 -3.3472452e-01
  7.3432070e-01
 -2.6156449e+00
  8.9371955e-01
 -3.5736901e-01
  4.4770397e-02
  8.1860721e-01
 -1.0639199e-01
 -6.7948386e-02
  2.2746410e-02
 -7.3977894e-01
 -1.1078239e-01
 -2.1824470e-01
  3.0848673e-01
 -1.9424167e-01
 -2.0309898e-01
 -4.2276976e-01
  9.6479994e-01
  1.1334416e-01
  1.5861149e+00
  2.2254369e-01
  5.4401362e-01
 -2.8478220e-01
  5.4938686e-01
  1.1988181e+00
 -4.1230255e-01
 -7.0627153e-01
 -9.3058711e-01
  2.9635966e-01
  2.2922335e-02
 -1.7671570e-01
 -9.4797415e-01
  2.0533928e-01
 -4.6935588e-01
 -6.6092408e-01
  7.4088727e-03
 -5.5927324e-01
 -3.1670246e-02
  3.3939075e-01
 -1.1370112e-01
  3.1418523e-01
  2.6620740e-01
  1.3134642e+00
  6.1244056e-02
 -6.5371376e-01
 -3.2538435e-01
  3.1567988e-01
  1.6779630e-01
 -3.0952770e-01
  1.1449005e-01
  6.8503714e-01
  4.6490866e-01
 -7.6861992e-02
 -4.2477289e-01
 -1.8495501e+00
  6.5057629e-01
  1.5631703e-01
  4.2753127e-01
 -3.7517557e-01
  6.6740525e-01
 -1.4130400e+00
  1.8256845e-01
  6.7806542e-01
  5.3720438e-01
 -5.1036960e-01
  4.7441077e-01
 -5.8424050e-01
 -7.6497322e-01
 -4.8053640e-01
 -5.2381486e-01
  3.4726057e+00
  1.1194345e+00
  4.3324947e+00
  2.1873176e-01
  9.6881008e-01
  3.1828943e-01
  3.2965651e-01
  9.0197957e-01
 -9.2782187e-01
  7.4647784e-01
 -1.1881611e-01
  2.0643964e-01
 -1.8311056e+00
  2.2062512e-01
  1.0890059e-01
  2.6244145e-02
  3.4691379e+00
 -9.0776551e-01
 -2.1618829e+00
 -1.1409039e-01
  4.8583943e-01
 -2.7121947e+00
  1.6320484e+00
 -7.2276127e-01
 -1.7574009e-01
  5.9990311e-01
 -1.9820646e+00
  2.0212522e+00
 -9.1215277e-01
 -8.8590163e-01
  4.0576172e-01
  3.0071189e+00
 -1.0963762e+00
 -8.6992227e-02
  1.7846948e+00
  1.4888769e+00
  3.8629189e-01
 -1.9863689e+00
 -5.3432089e-01
 -1.1001598e+00
 -8.5146034e-01
  1.1903778e+00
 -5.4140681e-01
  2.2007312e-01
 -7.6615572e-01
 -1.3132901e-01
 -2.0122550e+00
  4.5708682e-02
  4.2575982e-01
 -1.1272079e+00
 -2.3670657e+00
  4.2592431e-03
  6.7497760e-02
  3.2062590e-01
 -5.3966463e-01
 -1.2711740e-01
 -5.3269881e-01
 -9.4630790e-01
  4.7917280e-01
 -5.3839976e-01
 -5.8604574e-01
  2.3510794e-01
  2.4469564e+00
  3.8280657e-01
 -3.8853018e-03
  8.6911595e-01
 -2.6958992e+00
 -2.1496995e-01
  2.0767286e+00
 -1.2251627e+00
  3.9383554e-01
 -5.6607318e-01
  7.7629149e-01
 -2.3383534e+00
  8.0524850e-01
 -4.4835067e-01
 -3.0177488e+00
 -1.0451825e-01
 -1.0650166e+00
  1.1449784e+00
 -1.6971983e+00
 -3.4852400e-01
  1.9484904e-02
 -4.7628328e-01
  9.4395465e-01
  3.3770117e-01
 -1.4240233e+00
 -8.8095134e-01
 -1.6448201e+00
  9.0888631e-01
 -5.7398421e-01
  1.4520693e-01
 -2.0475347e+00
 -4.1369417e-01
 -7.0772803e-01
 -1.3162640e+00
 -2.6943320e-01
 -5.9008908e-01
 -2.0736669e-01
 -6.8986702e-01
 -5.8310115e-01
 -5.7610296e-02
  1.9533643e-01
 -1.6259296e-02
  5.7808220e-01
 -6.4281994e-01
 -1.3861306e-01
  4.3762848e-02
 -1.6386806e+00
  2.8416771e-02
 -7.5113225e-01
 -2.4159852e-01
 -1.3289391e-01
  2.3894982e-01
  6.6033125e-01
 -5.2711850e-01
 -1.8573463e+00
 -2.5368881e-01
 -7.6120622e-02
  2.9213375e-01
  6.8343955e-01
 -3.6770815e-01
 -3.5485330e-01
  1.0589651e+00
 -6.2541080e-01
  1.2342829e+00
  2.0906154e-02
  5.5305991e-02
  8.7619317e-01
 -9.1464496e-01
  3.4812057e-01
 -1.3971791e-01
  2.2348101e-01
 -3.1329459e-01
 -6.3822466e-01
 -3.6908969e-02
 -1.4754252e-01
  5.0429684e-01
 -5.0696594e-01
  5.2631563e-01
  5.3409255e-01
 -1.3261991e+00
  1.1414437e+00
 -1.2048404e+00
  1.0663376e-02
 -2.1651742e-01
 -5.8596236e-01
  1.0604587e-02
 -1.3360488e+00
  3.8502291e-01
 -4.7466803e-02
 -1.3191691e-01
 -7.7426004e-01
  6.0850263e-01
 -2.7926672e-01
  4.2105719e-02
  9.6336260e-02
 -5.2723485e-01
 -8.1318885e-01
 -1.6847569e+00
 -6.2078200e-02
  2.8841156e-01
 -8.9767998e-01
 -1.4655275e+00
  1.4281003e-01
 -5.8284503e-01
 -2.5543189e+00
  8.1136864e-01
  1.2129506e-02
 -4.5794958e-01
  1.5856961e+00
 -3.5882197e-02
 -1.0049091e-01
  5.6392962e-01
 -4.5271617e-01
  4.6742518e-02
 -3.1783000e-01
  1.3318433e-01
 -9.0454823e-01
 -1.6206275e-01
  5.3498983e-01
 -4.6043643e-01
 -1.7236121e-01
 -1.2650144e-01
  8.0736313e-04
  1.2738876e+00
 -3.6607197e-01
  9.0212071e-01
  1.0186983e+00
  5.9614558e-02
  6.4763702e-02
 -8.6485684e-02
  6.5541095e-01
 -5.7087380e-02
  1.5797433e+00
 -1.0244031e+00
  8.9039570e-01
 -1.1348984e-01
 -1.8885002e+00
  6.7860997e-01
 -2.2285593e+00
 -7.7524602e-01
 -1.4123912e-01
  7.7794242e-01
  8.5747206e-01
 -7.4037510e-01
  7.4071240e-01
  2.2068720e-01
 -7.7267475e-03
 -2.5633476e-03
 -3.5726529e-01
  9.6659255e-01
 -1.1301560e+00
  1.1573715e+00
  4.8493257e-01
  7.2791457e-01
  1.4847007e-01
  8.2822746e-01
 -1.8094121e-01
 -4.7878397e-01
 -1.9620107e-02
 -1.1791216e-01
 -2.0606287e+00
  8.8151729e-01
  1.9480804e-01
  3.4587234e-01
 -1.6887914e-01
 -1.5119827e+00
 -1.4959694e+00
  2.2738747e-01
  6.6983128e-01
  8.4137189e-01
  4.1124791e-01
 -1.2063200e+00
  8.1736255e-01
 -1.2331811e-01
 -9.6155024e-01
  5.5223244e-01
 -4.3692222e-01
 -2.0581608e+00
  6.8091393e-01
 -9.1137663e-02
 -2.8553253e-01
 -7.0654213e-02
  3.1193328e-01
 -8.4075409e-01
 -2.6692542e-01
  8.4190995e-02
  4.2774856e-01
  7.5644630e-01
 -3.3761797e+00
 -7.5593776e-01
  1.9070231e+00
 -1.3022362e+00
 -1.3969643e-01
 -1.5253980e+00
  4.4268259e-01
  3.7398678e-01
 -6.2266253e-03
 -5.0372124e-01
 -1.3663616e-02
  2.6221219e-01
  1.5830966e+00
  1.4702345e+00
  9.8550230e-01
  1.7065448e-01
 -1.2859989e+00
  6.7175293e-01
 -2.4429604e-01
 -1.5365662e-02
 -6.0270041e-01
 -7.5344300e-01
  1.5233270e+00
 -4.8712239e-01
 -1.4272001e+00
 -1.4629170e+00
 -2.2158031e-01
  4.3011910e-01
 -4.8983451e-02
 -1.1409250e+00
  5.5533940e-01
 -1.1544776e+00
 -6.5931827e-01
 -1.7403074e-01
 -4.0020049e-02
 -8.2969868e-01
  9.6133590e-01
  7.7970408e-02
  5.1646304e-01
 -3.5981098e-01
 -3.1655263e-02
  9.9293375e-01
  2.9290840e-01
 -5.3306401e-01
 -2.8984317e-01
 -5.5439955e-01
 -3.9396453e-01
  1.2961425e+00
  6.5029752e-01
  3.8641624e+00
  1.0250197e-01
  2.7124941e+00
  1.9070446e-01
 -1.0282178e-01
  9.0987611e-01
  6.4094639e-01
  1.8880817e-03
  9.7225392e-01
  4.2614017e-02
  1.1607351e+00
  1.0383401e+00
 -4.0981829e-01
 -6.1542261e-02
  1.4332217e-01
  1.1983573e-01
 -3.2085294e-01
 -2.5105521e-01
  1.3058883e-01
  8.3287999e-02
  2.2354915e+00
 -2.5276053e+00
  1.3383154e+00
  1.4488479e-01
  1.5808671e+00
  3.4840994e+00
  3.2430854e+00
 -2.9470083e-01
  9.1443640e-01
  2.2598095e+00
  4.6149775e-02
 -1.5006833e+00
  8.6741245e-01
  2.1663222e+00
 -3.6946356e+00
 -1.8151594e+00
 -3.9932573e-01
 -1.1753370e+00
 -1.4194491e+00
  1.6572789e+00
 -2.3862696e+00
  3.2273188e+00
 -1.6148206e+00
 -1.9767501e+00
 -2.8903916e+00
 -8.1847364e-01
 -3.1496031e+00
 -5.5874758e+00
 -1.8172136e-02
 -1.6497613e+00
  7.3577076e-01
 -5.1243429e+00
 -8.5800964e-01
 -4.3198676e+00
 -3.1969569e+00
 -2.4003558e+00
 -1.4137590e+00
 -2.7097685e+00
 -2.2936544e+00
 -2.5749937e-01
 -4.3205017e-01
 -6.4713663e-01
 -1.4062854e+00
 -4.6667328e+00
 -2.8293848e+00
 -2.2027120e-01
  3.1354305e-01
  1.8315016e-01
 -1.3441823e-01
 -1.1150172e+00
 -1.2217306e+00
 -7.8849655e-01
  9.5517747e-02
  1.7352724e+00
 -1.2280948e-03
  2.0345960e+00
  7.9337053e-02
  8.6520791e-01
  2.4504404e-01
 -2.8546426e+00
 -1.0517921e+00
 -1.7612183e-01
  1.4566590e+00
  2.8727251e-01
  3.6131214e-02
  2.2500580e-02
 -1.4373264e+00
  5.7020009e-02
  5.3974324e-01
  7.7891338e-01
 -2.1623392e+00
  2.2307758e+00
  5.4540534e-02
 -1.1249471e+00
  2.4179509e+00
 -1.5540073e+00
 -3.7847126e+00
  1.6586423e-01
  1.0398890e+00
  9.1799593e-01
 -2.3891780e+00
  1.2627051e+00
  7.2754282e-01
  2.0358684e+00
 -1.5370171e+00
  9.5126808e-01
  8.1162825e-02
  1.4069711e-01
  1.0385912e-01
 -1.5869837e+00
 -1.0065583e+00
  6.6544640e-01
 -7.5214297e-02
 -9.4891077e-01
  2.1165478e+00
  6.0977054e-01
  1.4134370e+00
  1.0934275e-01
 -1.3640581e-01
 -1.2344655e+00
  3.0943614e-01
  7.2100586e-01
 -8.7869000e-01
 -8.8838756e-01
 -7.1100563e-01
 -1.8769506e+00
 -9.3777418e-02
 -1.1573716e+00
  1.3058834e+00
 -2.5404544e+00
  1.5961738e-01
 -4.5366343e-02
  1.5075192e+00
  8.6880845e-01
  8.1328404e-01
 -5.2812767e-01
 -1.2101475e+00
  9.3160945e-01
  1.1583792e+00
 -1.0950655e-01
 -1.4464660e+00
  5.3751922e-01
 -3.2654502e+00
 -5.2574980e-01
 -7.0412439e-01
  1.4570096e+00
  7.6717132e-01
  6.5621030e-01
  8.0491126e-01
 -6.5225625e-01
  3.4703042e-03
 -2.2652583e+00
 -1.4041572e+00
 -2.3466408e-01
  4.7864273e-01
 -1.5425740e+00
 -2.6554316e-01
  1.4607427e+00
 -1.5699232e+00
 -1.6561709e-01
  3.0174172e-01
 -2.3969486e+00
 -1.3223544e+00
 -1.8758918e+00
 -1.1850561e+00
 -1.3664932e+00
 -7.2726226e-01
 -3.9079115e-01
 -5.4797262e-01
 -8.2687087e-02
 -1.3316307e+00
 -1.0062513e+00
 -1.6409147e+00
  6.1074495e-01
 -4.1221443e-01
 -3.4903389e-01
 -1.6078942e+00
  1.1058686e-01
  1.1089295e+00
 -2.5671303e-01
  5.8385944e-01
 -1.2247149e+00
  2.0739236e-01
  6.6502166e-01
  5.0968945e-01
 -5.6353080e-01
 -7.7935465e-02
 -1.3050710e-01
  1.0406901e+00
  5.4453456e-01
  4.8648719e-02
  5.7585949e-01
  4.1248071e-01
  2.3971744e-01
 -1.9430679e-01
  2.9078445e-01
 -1.7184114e-01
  6.1944526e-01
 -9.5058966e-01
  5.0778204e-01
 -9.5570236e-02
  3.2725328e-01
 -8.1592083e-01
  2.7926883e-01
 -1.1233206e+00
  4.4539964e-01
  1.4207046e+00
 -1.2851529e+00
  1.0385333e+00
  4.1667607e-02
  9.0980373e-02
 -2.5685248e-01
 -2.2280578e-01
 -5.7424736e-01
 -5.8981949e-01
 -6.5403610e-01
 -3.5476893e-01
  2.7049732e-01
 -4.8800337e-01
 -8.8842683e-02
  1.7743045e-01
 -1.3876633e-01
  1.0055003e-01
 -5.9016454e-01
 -2.3466933e-01
  2.4835418e-01
  9.9470443e-01
  1.5193580e-02
  3.6200002e-01
 -3.2863760e-01
 -1.0231434e+00
 -1.2325512e-01
  3.0259281e-01
 -5.8663845e-01
  6.1042184e-01
 -4.4746324e-01
 -3.2045779e-01
 -4.7217920e-01
  6.4815223e-02
  1.3260132e-01
  8.5604414e-02
  1.0410794e+00
 -3.7776417e-01
  1.3404141e-01
 -3.1342015e+00
 -3.7969360e+00
  2.5589812e-01
  3.0023034e+00
 -5.2856076e-01
 -3.4779727e-01
  4.4021186e-01
 -8.0899466e-03
  7.0506835e-01
 -7.6850183e-02
 -1.5043704e-01
 -1.7273566e-01
  6.4401656e-01
 -4.0748656e-01
  4.0047354e-01
  7.6601371e-02
 -1.1174512e-01
  8.1732199e-02
 -3.1431139e-01
 -1.2702368e+00
  8.5357197e-02
 -6.1813378e-01
 -4.4745347e-01
  3.9730370e-03
  6.1646026e-01
 -2.4976143e-01
  1.7692678e-01
 -4.1457641e-01
  1.1113250e+00
  1.1106107e-02
  3.8723072e-01
 -1.3196470e-01
 -7.6223463e-01
  4.9288833e-01
 -2.4232812e-01
  3.6329317e-01
 -1.4324078e-01
 -1.2854435e-01
 -4.1210450e-02
 -1.8925145e+00
  9.1612118e-01
 -2.4464276e-02
  8.2501894e-01
 -9.6330784e-02
 -1.2126882e-03
  1.1739142e-01
  6.3467222e-01
  7.3261064e-01
  2.8041884e-01
  6.5406598e-02
  4.8345092e-01
 -6.8219715e-01
 -1.5459886e-01
  1.0819809e-01
 -3.1762159e-01
  2.1876514e-01
  1.0265713e+00
  7.3639363e-02
 -4.3334550e-01
 -4.7117877e-01
 -9.4672155e-01
 -2.5312102e+00
 -7.5349498e-01
 -2.4088991e-01
 -5.8889186e-01
 -4.5411184e-01
 -6.5886341e-02
  4.3832433e-01
  6.1171460e-01
 -4.4018272e-01
  2.3972772e-01
  1.7266661e-01
 -2.3537202e-01
  1.3666347e+00
 -6.7059433e-01
  3.0131890e-02
  1.3157386e+00
 -6.3089675e-01
 -1.2058970e-01
  1.8462230e-01
 -3.3481568e-01
  3.6794406e-01
  2.6112562e-01
  7.7204004e-02
  4.4634500e-01
 -1.8338509e-01
  8.8394396e-02
  1.2832761e+00
 -1.2060332e-01
  7.8407395e-01
  5.5954687e-02
  2.5687340e-01
  3.1827195e+00
  2.6148891e-01
  1.0157838e-01
 -1.7595774e+00
  1.1685872e+00
 -1.4123031e-01
  1.8773642e+00
 -1.0277714e+00
 -5.2407947e-03
 -3.5679841e-01
 -2.4616913e-01
  6.0600418e-01
 -5.3593814e-01
  1.6975396e+00
  6.6253948e-01
 -5.3857160e-01
  1.2781985e+00
 -1.5410310e+00
  1.1066820e-02
 -6.7896813e-02
 -2.9694772e-01
 -8.1767052e-01
  1.6205845e-02
  2.8283259e-01
  3.0760956e-01
 -6.7790443e-01
 -1.0881944e+00
  1.3114707e+00
  1.0749505e+00
  2.1111760e+00
 -1.0229700e+00
  5.8827245e-01
  7.2207069e-01
  1.6902829e+00
  9.3163496e-01
  3.2205474e-01
  1.3752453e-01
  2.6573265e-02
 -8.4083200e-02
  8.3994411e-02
  8.2089013e-01
  8.0371700e-02
  1.5719661e-01
  1.6886275e-01
 -3.7314340e-02
 -3.1955410e-02
  1.5631686e+00
  5.0902408e-01
 -5.6911296e-01
  3.2675761e-01
  9.2020106e-01
  4.8526060e-02
  5.0796282e-01
  5.7150179e-01
  5.9980720e-01
 -1.4238212e-01
  3.8718981e-01
 -3.8581148e-01
 -1.5581451e-01
  3.3270854e-01
 -3.2518581e-02
  2.1523538e-01
  3.7468949e-01
  1.8442479e+00
 -8.8374507e-01
 -2.3551722e+00
  1.0053374e+00
 -1.3548684e+00
  2.9156566e+00
  1.6572767e+00
  5.9140410e+00
  1.0123924e+00
  6.9925481e-01
 -1.2059381e+00
  2.5911422e+00
  2.1961792e+00
  1.3014942e+00
 -7.4232811e-01
  2.1842444e+00
 -2.9272356e+00
 -1.0303080e+00
  1.4446011e+00
 -4.9459654e-01
  2.4051964e+00
 -3.5304914e+00
  1.4854724e+00
 -1.5667033e+00
  7.7679139e-01
 -9.7759527e-01
 -2.0492458e+00
 -9.7490573e-01
  7.5218901e-02
  2.1279263e+00
 -4.7022915e+00
 -2.7490149e+00
 -1.8020148e+00
 -1.4160813e+00
 -1.4937061e+00
  2.1056271e+00
 -2.4233363e+00
  5.1126593e-01
  1.6500045e-01
 -2.8082688e+00
 -1.5840570e+00
 -8.0708188e-01
 -7.6497906e-01
 -1.3449423e+00
  1.4901571e+00
  3.0999857e-01
 -7.6142055e-01
  2.9616252e-01
  9.0624958e-01
 -5.6684369e-01
 -9.0817142e-01
 -1.2521486e+00
 -2.5163040e+00
 -6.9220495e-01
 -1.4326068e+00
  1.1928587e+00
  5.6704617e-01
 -4.1575620e-01
  1.4686173e+00
 -2.5842574e-01
  2.1471007e+00
  6.7207789e-01
 -6.3115612e-02
 -7.3589116e-02
 -8.3082020e-01
 -6.9028038e-01
  1.8665802e+00
  1.1363982e-01
 -1.0055248e+00
  1.1986851e-01
 -1.4510930e+00
 -4.9778780e-01
  3.3001965e-01
  2.8136780e+00
  7.9201484e-01
  1.4055845e+00
  2.0686915e+00
  1.2544912e+00
 -5.5324733e-01
 -1.0729159e+00
  2.3038059e-01
  7.9963940e-01
  1.2175689e+00
 -5.6636000e-01
 -5.7471377e-01
 -4.8392817e-01
 -2.6140554e+00
 -4.8250237e-01
  3.5487106e-01
  1.3769559e+00
 -6.3349634e-01
  1.2563223e+00
 -3.6882016e-01
  9.1106892e-01
 -1.5304398e-02
 -8.2622087e-01
 -1.6137820e-01
 -7.4575537e-01
  3.5205063e-01
  4.5217934e-01
 -1.7983356e-01
 -2.6581659e+00
 -5.0038159e-01
 -3.6755037e-01
 -1.5085104e-01
 -1.9602510e-01
 -1.0575284e+00
  5.2122986e-01
 -1.1479315e+00
  4.9671957e-01
  1.5819821e-01
  2.6614216e-01
 -8.0793627e-02
  3.9515233e-01
  4.5349401e-01
  2.8725001e-01
  4.5835939e-01
  1.4552796e-01
  1.2858373e+00
 -8.5293913e-01
  3.2167321e-01
  1.0670509e+00
 -4.3199569e-02
  3.8996843e-01
  1.6639622e-01
 -4.1208923e-01
  8.2623214e-02
 -7.9542279e-01
 -1.3055481e+00
  1.9500731e-01
 -1.4634305e-02
 -2.7868801e-01
 -1.1053267e-01
 -3.7215722e-01
  4.1739598e-01
 -5.0118870e-01
  1.5707265e+00
  1.0234277e+00
 -7.7848721e-01
  4.7758991e-01
  7.0849806e-01
  4.3497324e-01
 -7.1081817e-01
 -6.1215565e-02
  2.2266629e-01
 -7.2430760e-01
  1.5031721e-01
  3.1840736e-01
  3.0689329e-01
 -1.3960962e-01
 -4.1840518e-01
  1.2982962e+00
 -2.9915906e-02
 -1.1292766e+00
  5.1019001e-01
 -3.5996699e-01
  5.9234333e-01
 -6.6402964e-02
 -2.4146789e-01
  1.4989465e+00
  8.3593529e-01
 -4.8679942e-01
 -5.5309534e-01
 -9.8158497e-01
  1.0999364e+00
  7.0264679e-01
 -2.2325938e+00
 -2.6227960e-01
 -1.0443170e+00
 -3.5974891e+00
 -2.4810367e+00
 -2.2060136e-01
  1.9325911e+00
  4.8427105e-01
 -9.8929191e-01
 -1.1168333e+00
 -1.5339793e+00
  7.6935142e-01
 -2.9829412e+00
 -4.0317455e-01
 -8.3427060e-01
 -2.0441818e-01
  8.6574805e-01
  1.9261874e-01
 -3.0240595e+00
  1.4590739e-01
  7.1975899e-01
 -6.4519501e-01
 -4.4826218e-01
 -2.0585742e+00
  1.2686197e+00
 -9.3371540e-01
 -1.4294863e+00
  1.4292408e+00
  3.6470500e-01
  5.5713683e-01
  9.4684981e-02
  3.7029558e-01
 -2.4320176e+00
  1.3220845e+00
  7.9797238e-01
  4.5358562e-01
  9.9691279e-02
 -3.8593587e-01
  1.6758047e+00
 -1.4181987e+00
 -1.2604316e-01
  3.7161496e-02
 -3.0027747e-01
 -1.4149237e+00
  9.2606775e-02
  1.8173243e-01
  2.1012041e-01
 -5.8332443e-01
  1.1547564e+00
  8.3224930e-02
  9.5506740e-01
 -9.8338217e-01
  3.4872305e+00
 -1.2592710e+00
  2.0267529e+00
 -4.8865020e-01
  8.8634145e-01
  2.5219367e+00
 -8.0920565e-01
 -5.9621656e-01
  4.3459404e-01
  2.1025672e+00
 -1.1824510e+00
 -1.9253349e-01
 -1.0204350e+00
  2.2716118e-01
  2.8648612e+00
 -5.6602108e-01
  3.1196725e-01
  6.2694317e-01
  1.2409233e-01
 -4.1334167e+00
  3.3708933e-01
 -1.5236378e-03
  1.2566030e+00
 -1.4028755e+00
 -2.0932291e+00
 -3.1313995e-01
  6.2059890e-02
  1.4792287e-01
  1.1887670e+00
 -1.0305233e+00
 -5.9365863e-01
  2.5992915e-01
  4.5877695e-02
  1.9291240e+00
 -1.5926941e-01
  2.2810681e-02
 -6.9556051e-01
  4.4989705e-01
  5.2883828e-01
 -9.0530556e-01
 -1.9209380e-01
  3.8957873e-01
  1.1199440e-01
 -4.9230495e-01
  3.4216672e-02
  4.1977280e-01
  7.1357554e-01
 -1.6978675e-02
 -3.1610372e+00
  2.5980452e-01
  3.7405178e-01
 -2.9214334e-01
  6.4283043e-01
  1.5191211e+00
  7.2548532e-01
 -3.7968149e-03
 -1.0769428e+00
  5.3066647e-01
 -1.9675269e+00
  2.1247451e+00
 -1.3364664e-01
 -2.1909381e-01
 -4.7344789e-02
 -9.9984753e-01
 -2.9775879e+00
  1.1071080e+00
  4.6695331e-01
  1.2799290e-01
  9.2123574e-01
  3.0044419e-01
 -1.5384239e+00
  5.7053767e-02
 -2.0035620e+00
 -3.5061457e+00
 -5.2543986e-03
 -3.7149248e-01
  4.7675389e-01
  1.7062137e+00
 -8.2826632e-01
 -1.3186238e+00
 -5.3058869e-01
  1.9245882e-01
 -2.7593625e+00
  4.6940681e-01
 -3.1007683e-01
  1.1075866e+00
 -2.0417018e+00
 -2.6877532e+00
 -9.6806921e-02
 -5.1399279e-01
 -8.5375659e-02
  5.2640539e-01
  2.7960676e-01
  1.6998489e-01
 -2.9030111e-01
 -1.0510871e+00
 -6.5513581e-01
  6.4302385e-01
 -4.4911999e-01
 -3.8023528e-01
 -7.9275113e-01
 -1.1122664e-01
  5.4462515e-02
 -1.1187597e-01
 -1.1034565e+00
 -1.8688995e-01
  4.9707916e-02
 -2.6028209e+00
 -2.1963527e+00
  3.5839565e+00
  5.1795936e+00
  4.8243332e+00
  3.6710105e+00
  3.9457524e+00
  8.3268315e-01
  4.3362510e-01
 -7.1552581e-01
  4.1294355e+00
 -7.9942280e-01
 -2.6182184e+00
  3.1022144e-02
  1.0526999e+00
 -5.9601078e+00
 -2.1022594e+00
  1.7761362e+00
  4.1213816e-01
  4.8171182e+00
 -1.0604416e+00
 -6.3465095e-01
 -3.9914268e-01
 -5.7389998e-01
 -3.4589274e+00
 -7.1854722e-01
  2.2892566e-01
  2.5144603e+00
 -2.1608323e-02
 -5.5127325e+00
 -1.6925613e+00
 -1.4108166e+00
  7.1923003e-02
 -9.6576744e-01
 -4.2690150e-03
 -3.0022961e-01
 -7.6612286e-02
 -1.3864390e+00
 -2.5527804e+00
  1.9513739e+00
 -2.0814023e+00
 -5.9821510e-01
  5.2280385e-02
 -7.9119045e-01
  1.1967341e+00
  3.1365567e-01
 -1.1709168e-01
 -2.5346670e-01
 -6.4343917e-01
 -4.7202212e-01
 -2.5178149e-01
  4.1914320e-01
  9.8054761e-01
 -2.0633538e+00
  8.4688550e-01
  1.3612330e+00
 -1.4923258e-01
 -1.9469308e+00
  3.3470932e-01
 -9.7885680e-01
 -1.9746795e-01
  9.7404277e-01
 -3.5666683e+00
 -6.0199177e-01
  1.4716990e+00
 -3.5776620e+00
 -1.0855668e+00
 -3.5278878e+00
 -1.3041428e+00
 -1.9946162e-01
 -3.4280699e-01
  6.3054450e-02
  2.7830944e+00
 -2.4570282e+00
 -2.5295699e+00
 -3.2988341e+00
 -9.0977573e-01
  1.3459764e+00
  2.9335675e+00
 -6.8916935e-01
 -5.1628989e-01
 -1.0112295e+00
 -6.6804826e-01
  1.7030330e-01
  1.9377009e+00
 -3.7255268e+00
  7.7265602e-01
  1.6071987e+00
  1.2126648e+00
 -6.9980383e-01
  3.8935438e-01
 -2.8791802e+00
  2.3304181e+00
 -9.6099627e-01
 -5.3455706e+00
  4.8483014e+00
  1.5467744e+00
  1.9929196e+00
  5.9124618e+00
  7.3315330e+00
  2.1348293e+00
 -4.0042472e+00
 -3.1998758e+00
  2.7162430e+00
  1.2169207e+00
  4.1997023e+00
  2.3839564e+00
 -3.0814867e+00
 -2.3290098e+00
  2.4241769e+00
  1.9191933e+00
  1.3760039e+00
  1.4832513e+00
 -2.5457809e+00
  2.8964293e-01
 -1.3314676e-01
  5.7397308e+00
 -4.5819688e-01
 -1.8536583e-01
 -7.0011604e-01
 -1.9940990e+00
  8.5192478e-01
 -4.1339391e-01
  5.6106633e-01
 -1.1677873e-01
 -1.3848141e+00
 -1.5695832e+00
  4.5346066e-01
 -9.6729204e-02
 -1.0388204e+00
 -3.2366019e-01
  1.5430430e+00
 -1.2082419e+00
  1.6365472e+00
  8.0363974e-02
  2.8972456e-02
  2.3363471e+00
  9.3443468e-02
  1.0713212e+00
  2.9061490e-01
 -2.7016082e+00
  4.2983618e-01
 -3.9484940e-02
 -7.0505464e-01
  1.7773803e+00
 -6.7209125e-01
 -7.4021465e-01
  5.3510028e-01
 -3.2117385e-01
 -2.2227649e-01
  3.3054475e-02
 -4.6003479e-01
  7.1436532e-02
 -2.2452219e+00
 -3.3870575e-01
  2.9852277e-01
  1.6644788e+00
 -1.9457842e+00
 -1.7405314e-02
  3.7526906e+00
 -1.5959508e+00
  1.3533704e-01
  1.6862667e-01
  1.0527501e+00
 -1.1293260e+00
 -9.4339246e-01
  1.0931360e+00
  7.3248881e-01
  9.9907309e-01
  1.2681313e-01
  2.1532692e-02
  3.8606429e-01
 -4.2699587e-01
  1.0129182e+00
 -5.2485070e+00
  1.4023114e+00
 -1.1135676e+00
 -7.6559514e-01
  7.0248717e-01
  7.4185783e-01
 -3.2547179e-01
  5.9394407e-01
  9.1020298e-01
  4.6872488e-01
 -1.4158063e+00
  5.9563124e-01
 -1.3016460e+00
  4.3580794e-01
 -4.0845340e-01
 -2.3512547e+00
  9.1318768e-01
  6.8597949e-01
  9.4040686e-01
  2.2994275e-01
  2.4960233e-01
 -6.9614464e-01
  1.7611959e+00
  2.3327866e+00
  1.6457551e+00
  5.6846505e-01
  1.3068784e+00
  2.5453568e-01
  2.9504541e-01
  1.5473637e-01
  2.7905172e-01
  1.9340609e+00
  8.4936631e-01
  1.3003070e+00
  1.0935646e+00
 -5.6988847e-01
  4.3232870e-01
 -1.7973886e+00
 -3.3905599e+00
  3.1848276e+00
  2.1710128e-01
  1.1371449e-02
 -1.2773522e+00
  1.0847207e+00
 -1.0701865e+00
 -3.3246136e+00
 -5.8189865e-02
 -2.0548348e+00
  1.5343369e+00
  1.8136333e-01
 -1.0265864e+00
 -3.4954332e-02
  1.0472242e+00
  1.2036569e+00
  1.6197401e+00
  6.0551035e-01
  2.9349368e+00
 -3.1738102e-01
 -9.2166573e-01
  1.8688444e+00
 -1.8117303e-01
  1.5799145e+00
  4.3021998e+00
 -1.9185104e+00
 -7.8208379e-02
  5.9674537e-01
 -4.3797035e+00
  1.1390948e+00
  6.0495102e-01
  1.2272632e+00
  2.2987189e+00
  1.1044962e+00
 -2.3874145e+00
 -3.0756661e-01
  3.1225100e-01
 -1.8537003e+00
  1.2531425e+00
  2.1578370e-01
 -4.3753700e+00
 -2.9735011e-01
  1.3412238e+00
  2.8811857e-01
 -2.4881169e-01
 -1.2914126e+00
 -9.1586512e-01
  3.5768811e-02
  3.4182963e+00
  4.3399554e-01
  9.4158143e-01
 -1.7786331e-02
  9.4518179e-01
 -6.3085425e-01
  2.9626939e-01
  4.7105622e-02
 -3.9389223e-01
 -9.3046820e-01
 -1.9699712e+00
 -9.1556385e-02
 -2.3773699e+00
 -9.2933901e-02
  2.4405732e+00
  3.0920312e-01
 -3.4973463e-01
  2.2693679e+00
 -2.4763991e-01
  2.6182907e+00
  1.0907257e+00
 -1.8290646e+00
  1.6144335e+00
 -1.1362409e-01
  5.1566118e-01
 -8.6072206e-01
 -1.0630672e+00
  1.0383742e+00
  2.2629278e+00
 -3.3975747e-01
  4.4433009e-03
  6.9146526e-01
  1.7926207e+00
 -1.3859887e+00
  1.5823483e-01
 -1.2804277e+00
  6.0416896e-02
 -6.5031129e-01
 -2.7307600e-01
 -1.7242750e+00
 -5.8620644e-01
  5.6468976e-01
  9.8097217e-01
 -2.2763389e-01
  9.3017554e-01
  3.5433429e-01
  2.4842181e+00
 -6.9809109e-01
 -1.0335677e-01
  6.8012947e-01
 -1.5162413e+00
 -5.3911984e-01
  4.1501334e-01
  1.7084934e+00
  2.5375516e+00
 -1.5396863e+00
  7.2909631e-02
  9.7358739e-03
 -3.7016702e-01
  1.7420481e+00
 -1.9798619e-01
  7.0223379e-01
  1.2086602e-01
 -1.0286108e+00
 -1.6860187e-01
 -5.4435474e-01
 -3.0357772e-01
  3.5163200e-01
 -6.0363442e-01
  5.0312991e+00
 -2.4626575e+00
  9.1470551e-01
 -7.6770328e-02
  1.1488146e+00
 -4.8811650e+00
  7.2878689e-01
  8.4533310e-01
  2.0445969e+00
 -1.0064602e+00
  1.9649247e+00
  2.6260943e+00
  1.9021173e+00
  4.6706438e+00
 -1.1244557e+00
 -9.1281545e-01
  3.6744821e+00
 -3.9370968e+00
 -1.3865502e-01
  2.9068754e+00
 -1.9808525e-01
  5.7028923e+00
  1.5433100e+00
  1.0114776e+00
 -4.9674840e+00
  2.2596095e+00
 -1.3390951e-01
  6.4194357e-01
 -6.7014517e-03
 -3.2145743e+00
  1.8028884e+00
  6.5652773e-02
 -1.4049692e+00
 -8.4618306e-01
 -3.5009143e+00
  3.9369902e-01
  4.2596883e-01
  1.9452217e+00
 -1.6349373e+00
  4.0318519e-01
 -5.4545629e-01
 -4.1735635e+00
  1.3092141e+00
  3.5523993e-01
 -1.9521519e+00
 -8.1841016e-01
 -3.2571062e-01
  1.8547964e-01
  7.5283730e-01
  1.6431981e+00
 -3.5562244e-01
 -6.3014156e-01
 -1.3431618e+00
 -1.5437430e-01
 -1.2518885e+00
  1.3089666e-01
  8.6778975e-01
 -1.2993516e+00
 -1.8554025e+00
 -2.9090905e+00
 -2.5787539e+00
  1.0982854e+00
  3.4842122e-01
 -2.8364822e-01
  3.9192396e-01
 -1.0127088e+00
  1.0427736e+00
  3.5653418e-01
  6.5972811e-01
 -3.3471088e+00
 -4.2376032e-01
  2.9400620e+00
 -2.6451704e-01
  2.8378036e+00
 -3.3899755e+00
  8.9158878e-02
 -1.9245229e+00
  1.8315937e-01
  1.0257543e+00
  1.0088838e+00
  2.9038978e+00
 -1.9662426e+00
  6.6663212e-01
  8.0050683e-01
 -1.2594757e+00
 -1.7029408e+00
 -3.5637933e-01
  7.4625331e-01
 -1.5963650e+00
 -3.1307077e-01
 -2.5966101e+00
 -9.4426149e-01
 -2.8777761e+00
  7.4798822e-01
 -1.6885953e+00
 -1.5274388e-01
  2.8148453e+00
  2.5983486e+00
 -1.2091527e-01
  1.5038512e+00
 -1.3573956e+00
  6.3370007e-01
 -4.4137517e-01
 -2.1374713e-01
 -4.9718767e-01
  5.3435180e-02
 -1.3900626e-01
  1.6904379e+00
 -6.1662591e-01
  1.5046874e+00
 -1.5884447e+00
  3.3064663e+00
 -1.4387656e+00
 -6.3523060e-01
  5.8234721e-01
 -1.1589656e+00
  5.2340519e-01
 -2.4050500e+00
  1.8048862e+00
 -2.5576320e-01
 -1.9497952e+00
 -6.9709700e-01
  2.0478323e+00
  5.2654469e-01
  1.8479695e+00
 -5.4816801e-02
 -9.3872988e-01
 -5.4561639e-01
 -5.0141102e-01
 -1.3309751e+00
 -1.2159907e+00
  1.6196491e-01
  4.6093854e-01
  3.0733180e+00
  4.8215013e+00
 -4.8802179e-01
  6.7061323e-01
  6.0859287e-01
  7.7171218e-01
  7.1569961e-01
  5.8724351e+00
 -1.1906880e-01
  1.3630281e-01
  1.9512184e+00
  1.6010271e+00
 -1.4387071e-01
  1.6123955e-01
  4.2304102e-02
 -6.3462041e-02
 -1.1340930e+00
  9.1182142e-01
 -2.4396117e+00
  3.2641780e-02
  7.4937534e-01
 -9.1575980e-01
 -3.6806188e+00
 -2.2234085e+00
 -1.3382399e-01
 -7.8893685e-01
  4.5210657e-01
 -1.9273497e-01
  2.0575573e+00
  2.8192756e+00
  1.1933112e+00
  9.6184707e-01
  1.9778246e+00
 -1.4762279e+00
  2.7867777e+00
 -2.1150064e+00
  4.3150640e+00
  6.1920661e-02
 -3.3396521e+00
  1.9133343e+00
 -1.2937636e+00
  2.6945877e-01
 -1.6283422e+00
  2.5243926e+00
  2.3816538e+00
  2.1470230e+00
  2.2016916e+00
 -2.0162179e+00
  7.3357344e-01
 -3.1170422e-01
  6.8704361e-01
 -1.1615788e+00
 -4.4072402e-01
  2.8349814e-01
 -2.1244056e+00
  1.0398083e+00
 -2.0554783e+00
  1.2177323e+00
  2.5275338e-01
  1.1970012e+00
  8.6109233e-01
  1.7586281e+00
  2.6455631e+00
 -4.1650823e-01
  2.1970060e+00
 -4.0035048e-01
  1.2979908e+00
 -1.2069120e+00
 -1.8331189e-01
  1.1215721e+00
 -1.2778803e+00
  1.5740027e+00
  1.2863582e+00
 -1.0665854e-01
 -1.2359533e-01
  6.2962317e-01
  1.0111390e+00
 -7.0963785e-02
 -9.1288626e-01
  2.3309093e+00
  1.7328342e+00
  3.5747421e-01
 -4.2161794e+00
 -2.0910268e-01
  4.6932298e-01
  8.1171638e-01
  1.2248871e-02
 -4.8492455e+00
  1.6785655e+00
 -6.8405211e-01
  2.0494072e+00
 -1.5316689e+00
 -5.1970971e-01
 -1.7030443e+00
 -1.8145411e+00
  3.2295063e+00
  1.3566445e-01
  3.3315998e-01
 -4.8878080e-01
  1.4733740e+00
  1.1979233e+00
 -1.7975842e+00
  5.6850325e-02
  1.0522310e+00
 -2.3633435e+00
  8.2938647e-01
 -1.7745844e+00
  2.0538592e-01
  1.2734014e+00
 -2.3218663e+00
 -2.4391215e+00
  3.3347726e-01
 -8.8248032e-01
 -1.7009369e-01
  1.3877411e+00
 -2.4657104e+00
 -2.8419559e+00
 -2.5780874e-01
  1.8628014e+00
 -4.0457425e-01
 -5.5194154e+00
  4.5122254e-01
  3.3093445e+00
 -5.4624957e-01
 -5.8159345e-01
 -1.1428088e-01
  1.4899880e-01
  1.4674551e+00
  7.6557153e-01
 -1.5860778e+00
  1.4819880e+00
 -1.0925756e-01
  1.9738470e+00
 -1.7775162e+00
 -5.9628379e-01
  1.5251909e-01
  3.3115268e+00
  1.0868162e+00
  1.2661324e-01
 -7.5140744e-01
  5.8510423e-01
  7.6155329e-01
 -6.5028839e-02
 -2.1157897e+00
  2.4977684e+00
  4.7765738e-01
 -9.9904120e-01
 -1.0481457e+00
  1.2270954e+00
  1.9373994e+00
 -3.1979684e-02
  1.2556361e+00
  5.0461783e+00
 -1.7510433e+00
 -2.5698429e-01
 -2.9207017e+00
  4.2052063e-01
  3.4142280e+00
  1.0814794e+00
  1.6729035e+00
 -2.4606156e+00
  1.5860347e-01
 -1.8711760e+00
 -7.2870648e-01
  5.0478272e+00
 -1.0615444e+00
  9.7992980e-01
 -3.2406323e+00
  3.0348544e+00
  4.9335089e+00
  4.0640768e-01
 -8.5359973e-01
 -4.7372308e-01
  2.7472606e-01
 -3.4156506e+00
  1.5420094e-02
  8.7029898e-01
  6.1503053e-01
 -7.9002368e-01
  5.3528376e-02
  1.0978689e+00
 -5.7547134e-01
 -1.0093009e+00
  7.3832917e-01
 -2.4373212e+00
  3.0812237e+00
  2.2432268e+00
  1.3895622e+00
 -1.1299235e+00
  1.7855169e-01
 -1.1084929e+00
  3.4614403e-02
 -2.0173490e+00
 -1.5551721e-01
 -1.0030512e+00
  3.8875222e+00
  3.5829401e+00
 -1.1286125e+00
  1.1104380e+00
 -2.2363758e+00
 -5.9197083e-02
  2.4347014e+00
 -3.5726208e-02
 -4.4395814e+00
 -1.0905544e-01
 -1.7435049e-01
  1.0496830e+00
 -2.3213110e+00
 -2.4512169e-01
  6.5431452e-01
 -2.8626981e+00
 -2.5879115e-02
  2.2994697e+00
 -1.9272429e+00
  5.3733981e-01
 -2.5500937e+00
 -1.7251903e+00
  1.8464487e+00
 -6.7395735e-01
  1.0264683e+00
 -8.7528712e-01
  4.4792721e-01
  1.7253290e-01
  8.0860972e-01
 -1.8171346e-02
 -1.9442289e+00
 -1.1195896e+00
  4.1220230e-01
  2.0741920e-01
  1.2274059e+00
 -1.8515775e-01
  1.8534385e-01
  4.9167767e-01
 -1.3119469e+00
 -2.4634264e+00
 -2.6359484e+00
 -8.6888403e-01
 -3.2948327e-01
 -4.5756209e-01
 -5.2244300e-01
 -4.3616992e-01
 -1.6642473e+00
 -2.4907649e+00
  9.2157358e-01
 -3.4399744e-02
  3.3752805e-01
 -4.9499646e-01
  2.4499259e+00
  5.5265558e-01
  2.5822490e-01
  2.8860781e+00
 -9.7594643e-01
 -9.3742549e-01
  3.5824040e-01
 -1.8099333e+00
  5.5864614e-01
  2.8210404e+00
 -1.0897763e+00
 -9.3045187e-01
 -1.2412680e+00
 -3.3949673e-01
 -1.8532805e+00
 -5.3632742e-01
  3.8702255e-01
 -1.7869265e-01
  2.1175296e+00
  1.9467939e+00
  1.8515241e+00
  2.1647549e+00
  1.0042157e+00
 -1.4601301e+00
 -6.8193430e-01
 -1.0269325e+00
 -2.7613006e+00
 -2.0145787e-01
 -1.0168149e+00
  4.3456852e-01
  4.7899154e-01
  1.1702069e+00
 -1.4535801e-01
  7.5498372e-01
  5.3505874e+00
  7.1450359e-01
 -1.1854895e+00
  5.5772305e-01
  9.4863266e-01
  2.8896971e+00
  2.1770627e+00
 -6.7794329e-01
  5.9127516e-01
  3.1271243e+00
 -3.7130797e-01
  3.3346325e-01
  5.0271088e-01
  1.6109604e+00
 -1.8833122e-03
 -2.1956284e+00
 -1.2574059e+00
  9.1253585e-01
  2.8086834e+00
 -1.4893681e+00
  9.0976954e-01
 -1.6320561e+00
  4.9029520e-01
  2.7573939e-02
  2.1775145e-02
  1.9340530e-01
  1.5402730e+00
 -8.5248834e-01
  8.6720206e-02
 -1.8616024e+00
  2.2256979e-01
 -1.6711349e+00
  1.9973271e+00
  1.1529410e+00
 -3.6737332e-01
 -1.1116520e+00
  1.9210622e-01
  1.4840108e+00
 -5.6976253e-01
  4.6220374e-01
 -3.7744962e-02
 -1.2614092e+00
  5.6721663e-01
 -9.0206236e-01
  9.0581316e-01
  2.7642190e-01
  6.7602968e-01
 -6.3558203e-01
  1.1523829e+00
 -1.5032150e+00
  4.7955561e+00
  9.9842727e-02
  2.0069538e-01
  1.7151862e+00
  7.3578948e-01
  8.9406490e-01
  2.2958410e+00
 -1.7090565e+00
 -2.0198359e+00
 -1.5058861e+00
  7.5451857e-01
 -4.2828932e-01
  1.8925712e+00
  3.8586459e+00
 -1.5138366e+00
  5.8006072e-01
 -1.4895065e+00
 -1.2309931e-01
  5.0427884e-01
  6.1464894e-01
  7.7368295e-01
 -1.0100733e+00
 -2.4364781e-01
  1.4456820e-02
 -7.4005908e-01
 -7.7031338e-01
  1.1970489e-01
  1.2027447e+00
  2.4772995e+00
 -1.2562077e-01
 -3.2105762e-01
  2.0762421e-01
  7.2866744e-01
  4.1833436e-03
  2.0197690e-01
  9.3719429e-01
  4.7774544e-01
  1.2313333e+00
  1.3732828e+00
  3.4231319e+00
 -6.1477911e-02
 -4.3017581e-02
  9.9201687e-02
 -1.0812558e-01
  2.7230507e-01
  1.7015939e-03
  1.4449536e+00
  8.0128133e-01
  1.4462814e-01
  4.9546733e-01
 -4.7252095e-01
 -7.9482853e-02
 -9.7309250e-01
  2.8952754e-01
  1.3134331e-01
 -2.3674052e+00
  2.2101717e+00
  4.8154235e-01
 -7.6036555e-01
 -8.3317351e-01
  2.8509822e-01
  2.5315028e-01
 -2.4057524e-02
  7.9287875e-01
  1.1613582e+00
  3.3574808e-01
  1.4603381e+00
 -2.3683558e+00
  1.1881318e+00
 -3.1004419e+00
 -4.0788975e-01
  4.3052888e+00
  1.0131316e+00
 -3.3255942e-02
 -6.5215953e-02
 -1.2583413e+00
 -2.2746296e-01
  2.2184587e+00
  1.4398103e+00
 -5.7203799e-01
 -6.8803209e-01
  1.0861071e+00
  3.9566195e-01
  9.4594836e-01
  9.9377209e-01
 -7.7681464e-01
  1.3658669e+00
 -8.9068460e-01
  1.7561290e-01
  8.2276866e-02
  1.3218980e-02
 -1.6130696e-01
 -9.3678993e-01
 -2.4260480e+00
  2.5351131e+00
 -1.8126171e+00
 -7.7555642e-02
 -4.0579295e+00
  5.9226793e-01
  7.0863366e-01
  6.3889879e-01
  6.6720837e-01
 -1.9135866e+00
  2.4572413e-01
  4.8558533e-01
 -1.1131575e+00
 -4.0433630e-02
  4.7621220e-02
 -2.9332840e+00
  2.7584550e-01
  3.5853855e-02
  1.7406611e+00
 -1.8130301e+00
  6.4092427e-01
  3.4978014e-01
 -1.1272272e+00
  8.7493330e-01
  7.3933804e-01
  2.3241797e-01
 -6.7179441e-01
  3.5744333e+00
 -8.9104742e-02
 -4.7731987e-01
 -2.1703782e+00
  1.2735260e+00
  3.4035239e-01
 -5.8801544e-01
 -1.0397806e+00
  2.5392577e-01
 -3.2837653e+00
 -5.3462458e-01
 -2.7092702e+00
  2.5195427e+00
 -1.7451822e+00
 -4.6026379e-02
  1.0700510e+00
  3.4913397e+00
  7.0059061e-01
  1.0773706e+00
  2.6909983e+00
  7.2138453e-01
  1.1613139e+00
 -2.5873607e-01
  1.3395662e+00
 -2.7989345e+00
  1.9729619e+00
 -3.0776994e+00
 -2.4841609e+00
  5.4751724e-01
 -7.5251919e-01
  2.1307533e+00
  2.4749713e+00
  1.2857362e+00
  2.3927119e-01
  1.3185560e+00
  1.5823112e+00
 -3.0741689e+00
  7.4262941e-01
  2.1916473e+00
  5.2089937e-02
 -7.8798103e-01
  1.6646343e+00
  1.3785758e+00
 -1.3304434e-02
 -3.1886632e+00
 -1.1662544e+00
  1.5107542e+00
  1.1969559e+00
 -9.1420794e-01
  1.9425344e-02
  8.9731055e-01
  2.4387248e+00
  1.0017920e+00
 -2.6738038e+00
 -1.3781006e+00
 -1.3795166e+00
 -1.5363739e+00
 -1.2173990e+00
  1.6896385e-01
 -2.2195292e-01
 -1.1207584e-01
 -4.7014952e-01
 -1.8814728e+00
 -2.3496337e+00
 -1.3834890e+00
  2.2502627e+00
 -1.7380096e+00
  3.3145621e+00
  8.4175241e-01
 -4.4981551e-01
 -1.0945237e+00
  1.7414404e+00
 -4.8014989e-01
  1.1256121e+00
  1.4946841e+00
 -1.1621633e+00
  5.4385203e-01
 -1.2152972e+00
 -2.0354910e+00
 -7.1274258e-02
  1.3417199e+00
  8.0412436e-01
 -4.9414310e+00
  7.6955062e-01
 -4.5686445e+00
  1.2764863e+00
  4.4018555e+00
 -2.3294134e+00
 -1.8983909e-01
  2.1967368e+00
  9.5830405e-01
  2.1772450e-01
  9.3791747e-01
 -3.9100626e+00
  1.9629029e+00
  3.8330202e+00
 -2.2916474e+00
  4.7816676e-01
  2.3875098e+00
  2.0826569e+00
 -2.0596051e+00
 -4.0409848e-01
  1.9811775e-01
  3.7423692e+00
  1.6994756e+00
  1.8156096e+00
 -2.3583531e-01
  1.1029195e+00
 -1.8284024e+00
 -3.3114719e-01
  7.2684014e-01
 -5.1909847e+00
  1.8497475e+00
 -9.1430932e-01
  1.2184501e+00
 -1.6490717e+00
  5.6036478e-01
  3.7828915e-02
  3.4615993e+00
 -2.1199083e+00
 -1.2423019e+00
 -1.6574507e+00
  7.4592739e-01
  2.5798957e+00
  1.3967850e+00
 -1.8147323e+00
  1.4436351e+00
 -6.4638990e-01
  1.4565301e+00
 -2.0416915e+00
 -4.0261322e-01
 -2.1902559e+00
  4.4041585e-02
 -1.7765449e+00
 -4.0430861e+00
  9.1438025e-01
  3.3112807e+00
 -1.1749893e-01
 -1.5371799e+00
  9.7968805e-01
  7.6257104e-01
  1.0022076e-01
  4.4664140e+00
 -1.9495648e+00
 -2.3684249e+00
  3.1324816e+00
  1.2487613e+00
  4.9508762e-01
 -8.0621964e-01
  2.0198648e+00
 -7.5127967e-02
 -4.5581543e-01
 -1.8495083e+00
 -2.5062380e+00
 -3.3438644e-01
 -6.9158375e-01
  3.2513416e-01
  5.8042198e-01
 -1.7347836e+00
  1.1505330e+00
  6.4741367e-01
  8.0908820e-02
 -1.7987739e+00
  6.0017633e-01
 -5.3771687e-01
 -1.3929557e+00
  4.0474528e-01
  2.6878443e+00
 -1.3081609e+00
  4.5120027e-02
 -1.6229892e-01
 -1.4100204e+00
  1.8337278e-01
 -2.8464445e-01
  1.9619250e+00
  2.0495427e+00
  2.2517946e+00
 -2.1386755e-01
  3.1325731e+00
  3.7168956e-01
  2.6609936e-01
  4.0131199e-01
  3.2977040e+00
  4.2930862e-01
  7.4669436e-02
 -1.8423955e+00
  1.2937127e+00
 -1.1773000e+00
 -1.2643145e+00
 -1.1861429e+00
  5.4843640e-01
 -1.2742118e+00
  1.2001868e+00
 -2.7648171e-02
  1.5297727e-01
 -2.5134510e-01
 -9.1695376e-02
  2.1217048e+00
  2.5452559e+00
  5.2404594e-01
 -4.8515323e-01
 -5.9869286e-02
 -5.2619070e-01
  2.5863550e+00
 -1.5399714e-01
  6.4108586e-01
 -2.1863394e+00
  3.6961031e+00
  3.1100863e-01
  7.2762686e-01
  1.2903741e-01
 -2.1317422e+00
 -6.7628622e-01
 -1.7090799e+00
  9.4992705e-02
 -2.0133813e-01
  6.2040728e-01
  5.3921437e-01
  1.2529528e+00
  1.6090045e+00
  1.5724998e+00
  3.5349628e-01
  2.2334538e+00
  1.6503565e+00
  2.1416782e-01
  6.7195588e-01
  1.3844534e+00
  3.2749477e-01
  7.9917812e-01
 -6.2615871e-02
 -5.9466901e+00
  7.9657429e-01
  2.8813758e+00
  4.0090281e-01
  4.4682881e-01
 -2.0872508e-01
 -3.7103707e-01
  5.8865410e-01
 -7.6328290e-01
  4.3255582e-01
 -4.9472445e-01
  2.3305733e+00
  3.9063457e-01
 -1.3424758e+00
 -1.3957014e+00
 -3.0791169e-01
 -8.9700305e-01
  1.3303246e+00
 -7.2457236e-01
  1.0887289e-01
 -6.9078553e-01
 -5.9575939e-01
 -1.6604077e+00
  1.0310411e+00
  2.3435284e-01
  7.4073577e-01
  8.5187763e-02
  7.9395670e-01
  2.0027661e+00
  1.6218560e+00
 -2.9359132e-01
  1.4850727e+00
 -2.8759837e-01
  5.9130955e-01
  1.4868772e+00
  4.9205345e-01
  1.2166039e-02
  1.3194554e+00
  1.2831883e-02
 -6.6291541e-01
  1.6272192e+00
 -5.1574075e-01
  1.9658180e-01
  5.2686751e-01
  9.6883252e-02
  1.7508117e+00
  1.2038718e+00
  4.8616821e-01
  2.6644230e+00
  1.3451278e+00
  1.3972601e+00
 -6.7148322e-01
  1.7412825e-01
 -5.3552729e-01
  2.8612527e-01
 -2.5134408e-01
 -1.2126318e+00
  1.3853602e+00
 -1.9544932e-01
  2.2718526e-01
 -1.0798495e-01
  6.2327760e-01
 -2.1410398e+00
  6.7785347e-01
  3.2813784e-02
  1.5095466e-01
  1.3058679e-01
  6.5630531e-01
  7.9180187e-01
 -7.8771043e-01
 -2.1286854e-01
  3.6069277e-01
  3.3407338e-02
  1.0293510e+00
  3.9758196e+00
  4.3850151e-01
  5.8551054e+00
  4.6068210e-02
  2.9459281e+00
  1.1943707e+00
  3.0177516e-01
 -9.9028152e-01
  4.3019009e-01
  3.8373163e+00
  5.8510575e-02
  4.2997980e-01
  2.0219691e+00
 -1.3730122e+00
  8.4455019e-01
  2.7044344e-01
 -9.6942502e-01
 -1.5067264e+00
 -7.7203268e-01
  1.5313224e+00
  3.1393549e+00
  7.9025275e-01
  7.4745971e-01
 -2.4995830e+00
  1.8428791e+00
  3.8486433e-01
  1.0522085e+00
 -1.6700900e+00
  2.7939418e-01
  3.9641712e-02
 -6.8350124e-01
 -2.6804576e+00
 -7.9003155e-01
 -1.4093946e+00
 -5.6515560e+00
  4.6158524e+00
  1.0244761e-02
 -1.3347226e-01
 -1.0675657e+00
 -7.2031245e-02
 -3.0398035e+00
 -8.3361882e-01
  4.0485790e-01
  1.7591542e+00
  9.2507005e-01
 -2.6851232e+00
  3.4671853e+00
 -4.6435747e-01
  4.0277433e+00
  1.7592975e+00
 -5.7964617e-01
 -2.5951278e+00
  2.9699125e+00
 -2.0701478e+00
  1.1370869e+00
 -1.0268008e+00
  1.8033344e+00
  1.4894592e+00
 -2.0882297e+00
  2.0084569e+00
  4.9167066e+00
 -7.7253014e-01
 -2.2525244e+00
  2.2117820e+00
  6.7063475e-01
  5.3755732e+00
  2.6083448e+00
  7.0539951e-02
 -5.5136245e-01
  2.8704462e+00
  1.4985720e+00
 -1.9246082e+00
  1.0473077e+00
 -3.2977611e-01
  1.8839860e+00
  2.7231531e+00
 -5.7578093e-01
 -8.6612517e-01
 -1.1189141e+00
 -8.8415664e-01
 -1.2913617e-01
  1.0353979e+00
  1.5961580e-01
 -4.0890148e-01
 -3.2055359e+00
 -2.4088141e-01
  3.7239249e+00
  9.5221370e-01
 -2.8028221e+00
 -3.4905678e-01
  4.1069779e+00
 -1.9499090e-02
 -2.1636834e+00
 -9.8978311e-01
  3.6650941e-01
 -8.3026206e-01
  1.9143151e+00
 -3.5261416e+00
  2.9002444e-03
  2.8275237e+00
  1.6141880e+00
 -1.2430636e+00
 -7.7831930e-01
  1.3282858e-01
  6.2153316e-01
  1.6060091e+00
  1.8687800e+00
 -2.1219442e+00
 -2.9588120e+00
  2.4027555e+00
 -1.5639753e+00
  3.0607133e+00
 -3.5094544e-01
  4.1325293e+00
 -4.8140436e-01
  7.9397166e-01
  3.0316696e-01
  1.3027735e-01
  4.9301428e-01
  3.4510775e+00
 -1.6880937e+00
 -2.8143411e+00
  2.2063999e+00
  1.5526884e+00
  3.8038284e-02
  1.1860942e+00
 -2.5682962e+00
  3.6676307e+00
  2.7224777e+00
 -1.0432273e+00
  2.9020934e+00
  2.7930954e-01
  1.3936007e+00
 -2.3454480e+00
 -5.2804506e-01
 -2.5960181e+00
 -1.1932772e+00
  6.3642347e-01
  3.2016590e+00
 -1.3281969e+00
  1.8834168e+00
 -1.6818011e-01
 -5.2132040e-01
  2.7267137e+00
  1.0349622e-01
  1.0047634e+00
 -2.5644784e+00
  1.5608536e+00
 -1.3189892e+00
  1.6156235e+00
 -1.0355541e+00
  1.4672297e+00
 -1.5474707e+00
 -9.2811966e-01
  1.7671918e-02
  1.6471856e+00
 -5.9518976e+00
 -6.6382343e-01
  8.7301880e-01
  7.9961285e-02
  8.3730984e-01
  1.4924328e+00
 -1.2914103e+00
  1.7061735e+00
  1.7354811e+00
 -3.5579094e-01
 -2.5393984e-01
 -2.7770063e-01
 -7.2494499e-02
 -1.4414217e+00
  1.4726084e+00
  1.1318405e+00
  7.4613905e-01
  8.9233160e-01
  6.2384331e-01
 -8.6628300e-01
 -6.8835485e-01
  2.7847913e-01
 -3.8508227e-01
 -3.5130486e+00
  4.1349924e-01
  1.1208251e+00
  8.7882221e-01
 -5.2908123e-01
  2.3370488e-02
 -3.5046997e+00
  4.9441424e-01
  6.3416325e-02
  3.0731320e+00
 -1.5684117e+00
  2.7686241e-01
 -1.3092355e-01
 -1.6237735e+00
  1.7614496e-01
 -9.6444964e-02
  1.5251939e+00
  5.1767796e-01
 -8.8106889e-01
  1.9466761e-01
 -2.3787789e+00
  4.4727605e-02
 -7.3418342e-02
  2.4405534e+00
  1.0620556e-01
  6.8643534e-01
 -4.2346972e-01
  2.9955294e+00
 -2.4146567e-01
 -1.0595081e+00
 -2.4329327e-01
 -1.4837015e+00
  4.2949014e+00
  2.7296176e-02
  3.2872462e-01
 -7.8968543e-01
  5.7745165e-01
 -1.1312963e-01
 -4.8941601e-02
 -7.7704465e-01
 -1.3308713e+00
  2.3940012e-01
  8.0481470e-01
  7.3708481e-01
  2.3511000e+00
  7.9148179e-01
  5.3937364e-01
 -8.8524652e-01
 -1.9215415e+00
 -2.1530125e+00
 -6.4709175e-01
 -1.0085408e-01
 -7.4726605e-01
 -1.4281903e-01
  1.4999825e-01
  2.5066316e+00
  1.4557914e+00
 -3.0365843e-01
  1.1854891e+00
 -8.0448031e-01
  3.8490944e-02
  5.0577182e-01
 -2.2125180e-01
 -6.8843342e-02
  2.2882149e+00
  2.6382548e-01
  2.2667310e+00
  1.6906486e+00
  2.1683731e+00
  3.7263529e+00
  3.6372840e+00
 -1.9046446e+00
 -8.8087779e-01
 -7.3865623e+00
 -2.3376937e-01
 -2.8327320e+00
 -1.0366156e+00
  2.3182554e+00
 -3.1961312e+00
  1.4310706e+00
 -1.0588672e+01
  2.3540184e+00
 -3.3846059e-01
 -6.8802691e-01
  3.1917257e+00
 -1.0646001e+00
  2.3544071e+00
 -3.8160295e+00
 -2.4502423e+00
  2.8662269e+00
 -2.3039689e+00
 -2.0078435e+00
 -3.5252607e+00
 -1.3523324e+00
  9.1330540e-01
  4.4731423e-01
 -1.4886695e+00
 -3.5843832e+00
 -3.4903083e-02
 -7.1467900e-01
  2.1370647e+00
 -5.6526047e-01
 -2.6185715e+00
  1.1179821e+00
 -1.0213776e+00
 -3.2878682e-01
 -2.8444688e+00
  5.9392784e-02
  6.1618608e-01
  5.4527295e-01
  8.8787526e-01
 -2.1667981e+00
 -3.9002423e+00
 -3.3269560e-01
 -2.0310659e+00
  6.6099846e-01
 -4.0345347e-01
  1.7486531e-01
 -1.2951351e+00
  2.7434990e+00
 -2.0082834e+00
 -2.3343797e+00
  2.4885035e-01
  6.9038373e-01
 -4.1103835e+00
  4.3349063e-01
 -1.6596979e-01
 -1.0770435e+00
 -7.5586319e-01
  2.6382077e+00
 -1.8856512e+00
 -2.6527538e+00
 -2.9727295e-01
 -1.5961954e-01
 -1.8483108e+00
  8.0776680e-01
  5.5851144e-01
 -3.0274725e+00
  1.2596617e+00
  8.9527778e-02
 -1.9744884e+00
  9.7996533e-01
 -1.6795534e+00
 -2.0213328e-02
  3.2739789e+00
 -5.9659612e-01
  1.0642972e+00
  4.7865105e-01
  1.4593886e+00
  1.6913905e+00
  1.6864720e-01
  7.5965691e-01
 -6.3035083e-01
 -9.8333669e-01
 -2.2151713e+00
 -2.1584640e+00
  2.8572471e+00
 -9.9328405e-01
 -2.3118448e+00
  3.9611578e-01
  1.8957114e+00
 -6.1842278e-02
 -1.0892026e+00
 -1.4572001e+00
  5.5106759e-01
 -1.4663164e-01
 -2.5502634e-03
 -4.8987017e+00
  7.8922898e-01
  1.7932853e+00
  9.5753454e-02
 -1.0959148e+00
  1.2787464e-01
  1.4310974e+00
  2.8435370e-01
 -3.5198793e-01
 -2.3608360e-01
 -9.7250390e-01
  2.2264592e-01
 -1.5462451e-01
  1.5034345e+00
 -5.4517263e-01
  3.7459164e+00
  1.7158391e+00
  2.0192084e+00
 -1.7379686e+00
  5.5559397e-01
  7.6701009e-01
  5.0231045e-01
  2.8298980e-01
 -1.4554395e-01
  7.4378073e-01
  8.6219367e-03
  1.6540021e+00
 -4.3207002e-01
 -2.3545949e+00
  5.6412137e-01
  1.5246199e+00
  2.6784277e-01
  1.3800462e+00
  2.3415883e+00
  9.5717508e-01
 -2.5740528e+00
  5.7553148e-01
 -1.7235638e+00
  4.0282345e+00
 -3.9904067e-01
  3.0946454e-01
  1.1379972e+00
  9.6566474e-01
  2.0225289e+00
  2.8894556e-01
  3.0718261e-01
  1.5888516e+00
  6.8083453e-01
 -2.7756376e+00
 -8.2897073e-01
  9.8848212e-01
 -7.3527199e-01
 -2.8432482e-01
 -6.7834592e-01
  3.1573591e-01
  1.1658566e+00
  1.6810901e+00
 -3.6116818e-01
  3.9327627e-01
  4.1937912e-01
 -7.7767724e-01
  9.4373930e-01
  5.0827950e-01
  1.3433679e+00
 -1.4691426e+00
  1.2481178e+00
  7.2512406e-01
 -8.0884315e-02
 -7.7016336e-01
  1.8179595e+00
  1.4314342e+00
 -1.0858663e+00
  3.4967482e-01
 -1.9315339e+00
 -3.8260140e+00
  1.4916693e+00
  1.9009272e+00
 -8.1925184e-01
  1.5513707e+00
  1.4448634e+00
 -3.8048117e+00
  3.2668967e-02
 -5.0171866e+00
 -4.7325506e+00
 -5.9373361e-01
  2.2074676e+00
 -3.1273097e-01
  2.4711802e+00
  3.5932884e+00
 -3.0880272e+00
  9.3127573e-01
 -1.5782657e+00
 -1.3919909e+00
  1.6400007e+00
 -3.9461133e-01
 -1.7515390e+00
  1.3780713e+00
 -4.2344639e-01
 -3.8188186e-01
  8.4405416e-01
  3.4509677e-01
 -4.8652348e-01
 -1.2485037e+00
 -1.7297572e+00
 -7.0499277e-01
 -4.4554439e-01
 -3.7872592e-01
  2.0909607e+00
 -5.6360751e-01
  2.4063130e-01
  3.2192903e+00
 -1.1867682e+00
 -2.2232385e+00
  2.0993755e+00
  8.7573487e-01
 -1.3606799e+00
  3.5324593e+00
 -1.7244048e+00
 -1.1500937e-01
  2.6453047e+00
  2.5036340e+00
 -5.4060288e-02
  3.8015860e-01
  2.5562343e-01
  1.0787711e+00
  2.7935407e+00
 -1.1517237e+00
 -1.2288764e+00
 -1.0764116e+00
  3.5148640e+00
  8.1563735e-01
 -4.1521269e-01
  1.4681402e+00
 -1.7889129e-01
 -4.5031969e-02
  7.2727837e-02
 -2.8179753e-01
  2.3877254e+00
  2.7773207e-01
 -2.5001025e+00
  3.8080329e-01
 -6.0995549e-01
  1.1481321e+00
  7.0265549e-01
 -2.6130586e+00
 -2.2454665e+00
  8.2237148e-01
  2.1896536e+00
  6.7478068e-02
 -5.4936069e-03
  1.4236227e+00
  1.7978726e-01
  1.3741954e-02
  5.3204513e-01
 -8.6079979e-01
  9.9561614e-01
 -7.8793323e-01
 -1.0164630e-01
  1.7654469e-02
 -4.7519520e-01
  7.2657734e-02
 -1.5936799e-01
  1.6701996e-01
 -6.7411035e-01
  4.2557409e-01
  2.8348306e-01
 -4.6509525e-01
 -1.4109210e+00
 -4.4210803e-02
  1.5273318e+00
  2.1535897e+00
  2.7064970e+00
 -2.7464050e-01
 -3.0764205e+00
  3.8689026e-01
  8.2249326e-01
  1.3725095e+00
  2.9332514e+00
 -4.3193388e+00
 -3.8195398e-01
 -3.0068715e+00
 -8.8363254e-01
 -4.2407446e+00
 -5.1798844e+00
 -3.4196188e+00
  5.1165259e-01
  5.6676739e-01
 -5.3636593e-01
 -4.2641835e+00
 -2.9243836e+00
 -3.0214934e+00
  4.4731733e-01
  1.1903348e+00
 -3.1910377e+00
  1.9822624e+00
 -7.3751229e-01
  4.7048097e+00
 -2.7063632e+00
  2.4982727e-01
  3.5498133e+00
 -2.2134719e+00
 -6.1024702e-01
  2.8769624e+00
  2.4621525e-01
 -7.9320532e-01
 -1.6940240e+00
 -6.3564473e-01
 -7.7496547e-01
  3.2097776e+00
  3.0071335e+00
  3.1985447e+00
  2.1759136e+00
  3.9425170e+00
  2.9161963e+00
  9.1950113e-01
  3.2392794e-01
 -2.0042174e+00
  1.6420165e+00
  3.2936497e+00
  3.5206218e+00
  1.1447496e+00
 -5.5574970e+00
 -2.7970669e-01
  1.1473045e+00
 -2.0517613e-01
  2.5092630e+00
 -1.6706828e+00
  3.0237181e+00
 -1.5229911e+00
 -3.1124671e+00
  1.2918825e-01
  9.5104772e-01
  1.3787526e-01
 -2.1965928e+00
 -1.2506801e+00
  5.1264811e-01
 -8.9513016e-01
 -5.0584066e-01
 -1.9455630e-01
 -3.5351753e-01
 -1.7307173e+00
 -6.2330800e-01
 -1.7295229e+00
 -1.0382348e-01
 -1.6520189e-01
  1.8134314e-01
 -7.2668189e-01
  1.0615691e-02
  3.0733479e-02
 -1.0274898e+00
  8.8336259e-01
  3.0418670e-01
  9.2770725e-01
 -3.5902008e-01
  3.0775979e-01
 -2.1695265e-01
  2.4511559e+00
 -7.3673874e-01
  5.6521982e-01
  2.2218198e-01
 -1.0802457e+00
  8.6584516e-02
  1.0098728e-01
  1.1451325e-01
 -5.4736590e-01
  9.3647730e-01
 -1.0552535e+00
  6.2025357e-02
  2.0032570e-01
  7.3452699e-01
  6.4095986e-01
  8.2327688e-01
 -1.0176713e-02
  2.0226796e-01
 -3.3122280e-01
  5.5338144e-01
  1.3805729e+00
  1.0866036e-01
  1.2579161e+00
 -3.6141565e-01
 -4.7823477e-01
  8.1192017e-02
 -4.2153621e-01
 -5.1892066e-01
 -2.4078507e+00
 -1.5076894e+00
  2.0352732e-01
 -3.7005582e+00
  6.7324388e-01
  2.1331967e-01
 -1.4542991e+00
  4.3565628e-01
 -1.8311597e+00
  3.8614791e-02
 -1.8669260e-01
  1.3714838e-01
  6.6141528e-01
  1.5763988e+00
 -1.4612336e+00
  1.2983656e-01
 -1.0415708e-01
  3.1857379e-02
 -1.2115984e+00
 -9.1144985e-01
  1.6785307e-01
 -1.7971849e-01
  3.4465826e-01
  1.3944419e-01
  1.8951561e-01
 -1.2995347e-01
  2.0425980e+00
 -6.9326389e-01
 -2.5660932e-01
 -2.1807818e-02
  1.7722454e+00
  2.3013449e+00
  1.1267570e-02
  2.3759749e+00
 -1.2417119e+00
 -2.5349745e-01
 -1.2611828e+00
 -1.7344960e+00
  3.3148769e-01
  9.6482372e-01
  3.0189615e-01
 -7.0278513e-01
  2.2505703e+00
  4.3936506e-01
  6.0961425e-01
  4.4608980e-02
  2.3347411e-01
 -6.2291265e-01
  3.3963534e-01
  6.3598794e-01
  4.4481450e-01
  3.3488490e-02
 -6.6764660e-02
 -6.3120061e-01
  2.5670660e-01
 -2.8067470e-01
 -5.8541065e-01
  6.7504697e-02
  4.2580140e-01
 -1.1374208e+00
 -2.8153166e-01
 -4.0788451e-01
  5.7217151e-02
 -1.7727943e-01
  3.7051439e-02
  1.4301385e-02
  1.9980673e-01
 -4.5454872e-01
  9.5192200e-01
 -2.7393419e-01
 -2.5648507e-01
 -5.0681006e-02
  9.4403273e-01
  2.8092888e-01
 -7.8054744e-01
  9.2456138e-01
 -4.6015337e-01
 -3.6103091e-01
 -2.8153741e-01
  1.4470726e-01
  7.0311594e-01
 -1.1003541e-01
  1.2751957e+00
 -8.4968495e-01
 -3.6870393e-01
 -1.0924661e-01
 -2.2116585e+00
  7.1384943e-01
  2.4664128e-01
  9.4638199e-01
 -7.2505042e-02
  8.5487670e-01
  1.5853640e+00
  7.4611522e-02
 -3.1730700e-01
  5.9466600e-01
 -1.5883647e-01
 -3.7831461e-01
  2.1811308e-01
 -4.1867349e-02
 -5.7647198e-01
  3.3187795e-01
  3.3888251e-02
 -4.8071671e-01
 -3.6157344e-02
 -1.1684449e+00
 -2.8838515e-01
 -3.0471784e-01
  1.2398323e-01
 -7.4235266e-01
  1.8795213e+00
  1.6749036e-01
  2.7594712e+00
 -3.5673654e-01
  1.4869331e+00
  7.3428559e-03
  1.1574107e+00
  8.9890337e-01
 -2.9407135e-01
  2.1296585e-01
 -5.0769436e-01
  8.7298775e-01
  1.8142116e+00
  3.1080213e-01
  1.0506339e+00
 -7.1099144e-01
  2.7803889e-01
  4.4090900e-01
  1.4531142e-01
 -2.1684934e-01
 -1.7454901e-01
  1.5517080e+00
 -7.3368162e-01
 -3.1756455e-01
 -2.0276086e+00
  3.4358492e-01
 -1.6872610e-01
  2.0173259e+00
 -1.5752118e+00
 -1.0699172e+00
 -3.3831421e-01
 -1.4987503e-01
 -3.1142688e-01
  2.0261072e-01
 -6.9154543e-01
  1.3687487e+00
  5.7959443e-01
  7.5794953e-01
 -1.2105536e+00
 -4.6034887e-01
 -6.9903739e-02
  7.1958071e-01
 -5.5256075e-01
  6.3084401e-02
 -5.1087070e-01
  4.9625388e-01
  8.8011168e-02
  1.9234602e-01
 -2.0284207e-01
  2.8797358e-01
  8.0850488e-01
 -3.7675345e-01
  2.8425100e+00
 -2.6639676e-01
  7.3056680e-01
 -1.5452603e-01
 -8.0155349e-01
 -3.2632202e-01
  2.0152025e+00
 -6.7209065e-01
  1.6580929e-01
  2.0808163e+00
 -6.3920878e-03
  3.2554284e-01
 -1.1181159e+00
 -3.4697586e-01
 -7.2281361e-01
 -1.3573865e+00
 -9.4318277e-01
 -2.5785604e-01
 -3.0301633e-01
  2.9026644e-02
  1.6836904e-01
 -1.2410462e+00
 -2.3791828e+00
  1.7256191e-01
  3.3561285e+00
 -1.6272744e+00
  6.6005397e-01
  1.2670296e-01
  2.5984573e+00
 -1.8715709e+00
  9.7466099e-01
 -1.3533743e-01
  1.8888439e+00
  2.0831305e-01
 -1.1503764e+00
  8.7400429e-02
 -7.2760379e-01
 -1.4243755e+00
  2.3118731e-01
  5.8192235e-01
 -1.2061384e+00
  1.6277019e+00
  4.9641627e-01
  1.6706642e+00
  5.7960689e-01
  2.8251716e-01
 -4.4241050e-01
  1.1448003e-01
  3.6597279e-01
 -1.9972755e-01
  1.1989769e-01
 -1.6072752e+00
 -2.5680488e-01
  4.4798404e-01
  7.1870536e-02
 -9.3085974e-01
  5.5182207e-01
 -1.2297461e-01
 -3.9543045e-01
 -5.7694573e-02
  1.6626648e+00
 -1.1571378e-01
 -7.2853482e-01
 -1.4312234e+00
  1.4323112e-01
 -4.3615800e-01
  2.0325577e-01
  2.1141987e-01
  3.9652517e-01
 -3.2397974e-02
 -2.7948117e-02
  1.3572813e-02
 -1.1880258e-01
  3.4232665e-02
 -3.4439650e-01
 -2.2520890e+00
  1.6900577e-01
  2.7966359e-01
  5.4820824e-01
 -1.2377075e-01
 -8.4440905e-01
 -5.9695292e-01
  3.5934582e-01
 -1.3817170e-01
 -3.6115399e-01
  1.4308815e-01
  4.1880995e-01
  2.7273250e-01
 -9.7462542e-02
 -1.3700144e-01
  4.5240474e-01
 -5.3871725e-02
 -1.0983718e-01
  3.3942541e-01
  5.7011807e-01
  1.1383548e+00
 -1.3983405e+00
 -1.6488558e-01
  8.6418223e-01
 -5.4929022e-02
  2.5368372e-01
 -2.7354261e-01
 -6.6944204e-02
 -8.0700278e-02
  8.1814669e-02
 -3.4943722e-02
  1.4843254e-01
 -5.0470600e+00
 -2.3814599e-01
 -4.6934420e-01
  2.1531856e+00
  1.0027790e+00
  7.2432357e-01
  2.3236603e-01
 -3.9927602e-01
  2.2035074e-01
 -1.9729129e+00
 -7.0136890e-02
 -1.3748012e-01
 -2.9086065e-01
  8.5580176e-01
 -3.8022244e-01
 -1.2301636e+00
 -1.6464558e-01
  2.5579563e-01
 -1.5951183e+00
 -2.0159726e-01
 -9.1576688e-03
  3.4632639e-03
  2.6345780e-01
 -4.7065299e-02
  6.4603155e-03
 -2.3677108e+00
 -6.2945646e-01
 -6.3012940e-01
 -4.7998512e-01
  2.8106390e-02
  1.8417598e-01
 -4.1630781e-01
  3.5074010e-02
  1.7713383e-01
  1.6066995e-01
  1.3638309e-01
 -2.6175213e-01
 -2.1590858e+00
  5.5107999e-01
 -7.1704954e-01
  4.7153682e-01
 -1.9991798e+00
  2.8432190e-02
  1.4245235e+00
  1.7780021e-02
  1.9734599e-01
 -2.0999075e-01
  8.5369468e-01
  1.1031238e+00
 -3.3111906e-01
  9.1383822e-02
 -6.1923403e-02
  1.9477262e-01
 -2.3744212e-02
  4.8882499e-01
  2.6997480e-01
 -3.4226627e+00
 -9.3450719e-01
  4.2422926e-01
  1.1625384e+00
 -4.4701496e-01
  9.5128186e-02
  3.5633731e+00
 -1.8426306e-03
  4.9224284e-01
  5.9749776e-01
  1.6578522e+00
  1.3258187e-01
 -5.2405506e-01
 -6.1316687e-01
 -9.5331424e-01
  2.4359082e-01
  5.0086355e-01
 -1.6577729e+00
  1.3869591e-01
 -2.1848167e-01
 -1.8271012e-02
 -2.2193668e+00
  6.0585891e-03
  9.9401271e-01
 -1.3508606e-01
 -2.9487923e-01
  1.0950294e-01
 -1.3756879e-01
 -6.3845366e-01
 -2.2541623e-01
 -8.6818375e-02
  9.8007724e-02
  1.8889580e+00
  3.9187998e-01
  3.6238813e-01
 -2.2752298e-01
 -2.5037214e-01
  2.4578038e-01
  5.8774382e-01
 -2.8383203e+00
  2.6477230e-01
  7.9579008e-01
 -1.8392744e+00
 -9.7144449e-01
  5.5788529e-01
  4.9085888e-01
 -6.3797873e-01
  7.6369762e-01
 -2.5737548e-01
 -4.0649064e-02
  2.1838382e-01
 -1.0654794e-02
 -2.4590684e-02
 -1.2151177e+00
 -4.2845967e-01
  1.3175180e+00
 -6.4449316e-01
  3.8615751e-01
  6.8962979e-01
 -7.8987324e-01
 -1.1715017e-01
  4.7823736e-03
  1.3120999e+00
  1.5067761e+00
 -6.1651528e-01
  1.0483783e+00
 -1.4349966e-01
  2.3780215e-01
  2.7181869e+00
  2.0316768e+00
  3.6783823e-01
 -3.1605622e-01
  9.9106199e-01
 -2.2562299e+00
  1.1369478e-01
  3.4432104e-01
 -6.7936048e-02
 -1.1798244e+00
  2.9013312e-01
  8.7676728e-01
 -6.0362571e-01
 -3.5212579e-01
 -2.6030302e+00
 -6.6926295e-01
  1.3401173e-01
  7.4249107e-01
 -5.1112094e+00
 -2.5831780e+00
  2.8834093e-01
 -5.9017140e-01
  3.3491781e-01
 -4.2675927e-01
 -5.5852342e-01
  2.9939866e-01
  2.8372765e-01
 -8.8924062e-01
  1.0299424e+00
  2.1280812e-01
 -1.5544346e-01
 -4.6351829e-01
 -3.8150564e-01
  4.6010557e-01
  2.3815137e-01
 -5.8326924e-01
 -9.2034824e-02
  2.2442812e-01
 -6.5890968e-02
 -1.9133909e-02
 -2.4890481e-02
 -1.6094525e-01
  7.6784287e-03
  3.9167568e-01
  4.8541135e-01
  2.9559886e-01
  1.9466247e-01
 -7.7824634e-01
  1.2066776e-01
 -4.8978856e-01
 -3.8299689e-01
 -7.0928895e-01
  6.4647871e-01
 -2.6062280e-01
  2.6845554e-01
  1.0516334e-01
  1.3661860e-01
 -5.8402878e-01
  4.6917030e-01
  2.7059129e-01
 -3.6454275e-01
 -8.7502651e-02
 -3.0908820e-01
  3.7486825e-02
  1.7419255e+00
  5.3418738e-01
 -3.9475001e-02
  1.5603209e-01
 -4.8279342e-01
  6.9678438e-01
  4.1426212e-01
  2.5078815e-01
 -2.9201996e-01
 -4.5888945e-01
 -7.5730279e-02
  1.9544551e-02
  2.1656655e-01
  2.1225327e-01
  2.7468887e-01
 -1.5948015e-01
  9.8209059e-01
  4.7307134e-01
 -2.3107913e-01
  4.8408145e-01
 -4.1855749e-01
 -6.3329697e-02
  4.6627766e-01
  3.0208746e-01
 -2.9020360e-01
  3.8107979e-01
 -2.2078322e-01
 -5.3558156e-02
  1.4090279e+00
 -1.4713693e+00
 -2.1525404e+00
  1.3413415e+00
  2.1348713e-01
 -2.8944835e-01
  1.2342968e+00
 -2.3202684e+00
 -6.7498261e-01
  7.5673813e-01
  7.5502521e-01
  1.2261930e+00
 -7.5030285e-01
 -3.4367096e-01
  1.4160540e+00
 -4.4461235e-01
  1.0722270e+00
  7.9909950e-01
 -5.0078279e-01
 -1.1834856e+00
  1.8650371e-01
 -6.4217947e-02
 -7.0062107e-01
  1.5468477e+00
 -3.2913035e-01
  3.3933480e+00
  2.4060094e+00
 -1.4358121e+00
  4.0227628e-01
 -5.2550244e+00
  1.7601402e+00
  7.2878742e-01
  2.9944651e+00
  1.5955587e-01
 -4.1550428e-01
 -4.1016090e-01
 -2.3056021e-01
 -1.1992681e+00
 -3.6333797e+00
  7.3565060e-01
  1.9783074e-02
 -1.7776352e-01
  6.6473871e-01
 -1.8682384e-01
 -7.1621770e-01
 -9.1619325e-01
  2.0093393e-01
  3.9413974e-01
 -5.7136708e-01
  2.0256400e-01
 -8.3828324e-01
 -2.4493766e-01
  2.8475097e-01
 -4.4770265e-01
  1.4325212e+00
 -1.8245879e-01
 -1.5182738e+00
 -5.4931551e-01
 -1.5898149e+00
  4.4743031e-01
 -1.3943768e-01
 -7.7667397e-01
 -7.5638753e-01
 -6.1621975e-02
 -8.2404995e-01
 -6.7588061e-01
 -1.9726795e-01
  1.6273770e+00
 -8.6394435e-01
  2.6366195e-01
  5.1166400e-02
 -2.7721641e+00
  1.0632752e+00
  5.8597910e-01
 -1.1589831e+00
 -2.2611342e-01
  1.8394388e-01
 -8.4424637e-02
  3.1614336e-01
 -5.4681279e-02
  7.6055354e-01
 -2.9663098e-01
 -1.5108182e-01
 -2.2673433e-01
  9.3232286e-01
 -7.0551330e-01
 -2.8306550e-01
  3.9199058e-02
 -2.6935160e-01
  7.6454461e-02
  1.6828944e-01
 -5.4109949e-01
 -1.8423401e+00
  1.6976956e+00
 -9.4599253e-01
 -1.3592423e+00
 -7.3423141e-01
 -4.3214458e-01
  1.7426555e-01
 -5.3760953e-02
 -4.6768996e-01
 -1.4538352e-01
 -5.9766233e-01
  2.4579616e-01
  2.3527168e-01
  2.7042928e-01
 -3.0353446e+00
  2.5969568e-01
  8.0522084e-01
 -3.5018629e-01
 -3.0984870e-01
 -2.7509347e-02
  2.5190497e-03
  1.4827824e+00
  3.1809423e-02
  1.2888229e+00
  5.5212259e-01
  4.1432771e-01
 -2.6320308e-01
 -2.1176223e-01
 -5.3817880e-01
  1.1293495e+00
  4.1578165e-01
  3.0417731e-01
  1.0927724e+00
 -1.8404461e-01
  2.0405376e-01
 -8.9974219e-01
 -1.0439448e+00
  7.9548937e-01
 -1.9247396e-02
 -8.6629683e-01
  1.1167634e+00
  4.2761594e-02
  2.2787912e-01
 -5.9313911e-01
 -1.3213601e+00
 -1.9550054e-01
  6.3568372e-01
 -5.5623293e-01
 -4.9422660e-01
  6.6734403e-01
 -9.8380357e-01
 -1.4343656e-03
 -2.3547865e-01
  5.2184296e-01
 -1.2090248e-01
  2.2128347e-01
 -1.5251368e-01
 -2.3963897e-01
  6.6217327e-01
 -6.6477424e-01
 -3.3226910e-01
 -3.8295311e-01
  5.6225449e-01
  2.5940865e-01
  1.0392702e-01
  1.5050343e-01
 -2.8432804e-01
 -1.9776501e-02
 -7.8953767e-01
 -3.9409149e-01
  2.8483689e-02
 -2.8257576e-01
  5.7386893e-01
  8.3191019e-01
 -7.7563035e-01
  8.3480066e-01
 -9.8423922e-01
 -1.5075917e+00
 -1.0368626e+00
 -2.1250452e-01
 -2.4208096e-01
 -1.0906322e+00
 -1.1492873e-01
 -1.2217910e+00
 -5.1273364e-01
  4.3470111e-02
  1.5624568e+00
  7.1162038e-02
 -1.2395423e-01
 -5.2184623e-01
 -2.2497830e+00
 -1.2555298e+00
  1.2677448e+00
  3.3072361e-01
 -7.1783429e-01
 -3.2094359e-01
  6.7484182e-01
  1.1804807e+00
 -7.3788380e-03
  1.0095688e+00
 -3.3049506e-01
 -1.3381305e-01
  1.7460498e+00
  3.6731577e-01
 -1.9361306e+00
  1.1380709e+00
  1.6449025e-01
 -4.6168005e-01
 -3.6664513e-01
 -8.3275139e-02
 -1.3608965e-01
  2.9769331e-01
  1.2755475e+00
 -5.6186366e-01
  2.6490304e+00
  1.4912337e+00
 -1.9717942e-01
  1.3147697e+00
 -2.0024741e-01
  1.4896644e+00
 -7.9103541e-01
 -3.8303173e-01
 -3.9426586e-01
  1.5216130e+00
  5.9324987e-02
 -1.4054720e+00
  2.2153483e-01
 -1.5321697e+00
  2.6189852e-01
 -1.6635063e+00
 -6.8275340e-02
 -6.8371981e-01
  9.3542419e-02
 -1.7262306e+00
  1.6629127e-01
 -4.6005675e-01
  1.2800949e+00
 -1.4816747e+00
  7.9095803e-02
 -4.6791092e-02
 -2.9420769e-02
  2.6034600e-01
  1.3774727e-01
  2.7203117e-02
 -5.2147552e-02
  1.2871328e-01
  1.1948651e+00
  1.8142768e+00
  3.6326095e-02
  1.7740277e+00
  1.0954184e-01
 -3.0944762e+00
  8.1561244e-01
 -6.6179371e-01
  1.8113002e+00
  1.5908437e+00
  1.1403331e+00
  1.4479135e-01
 -1.1803039e-01
 -8.8248670e-01
  6.5233660e-01
 -2.1770814e-02
  8.4637600e-01
 -5.2410477e-01
 -2.3801197e-01
  2.2765331e+00
 -5.7338256e-01
 -1.2585320e-01
  3.1165695e-01
 -2.4909213e-01
 -2.6744425e-01
 -7.2415721e-01
 -5.9587888e-02
 -2.7899882e-02
 -2.8101847e-01
 -6.1977124e-01
 -5.2572362e-04
 -6.7584187e-02
  9.2542291e-01
  9.2098904e-01
 -5.0059521e-01
 -2.7614996e+00
  1.3227222e+00
  1.8473947e-01
 -2.7596240e+00
  3.7860468e-01
  2.3369084e-01
  2.3696544e+00
 -1.3345577e-01
 -6.8960816e-02
  2.6944941e-01
  9.0804762e-01
 -1.0499774e+00
 -3.3133766e-01
 -6.8922698e-01
  9.4828880e-01
 -2.3791035e-01
 -3.2191706e-01
  2.7416329e+00
  7.3944837e-02
  2.8480324e-01
 -2.1683969e+00
  3.7384629e-01
  2.1046387e-01
 -5.0568927e-02
  9.0311188e-01
  1.4051464e+00
 -8.7942636e-01
 -1.3982084e-01
 -2.7051187e-01
 -2.5441518e-01
  1.1328177e+00
 -7.0418680e-01
  2.0488007e-01
 -1.2121942e+00
  7.4562556e-01
 -4.3870229e-01
 -6.8947953e-01
 -1.0343113e+00
 -8.6138618e-01
  1.6400312e+00
  1.0705309e-01
 -2.0764713e+00
  7.5413936e-01
 -1.3070793e-01
  5.5588937e-01
  2.3722784e-01
 -4.0195829e-01
 -4.7470787e-01
 -1.6460583e+00
  2.3471774e-01
  5.1894053e-03
 -4.6160460e-01
 -2.6079261e-01
  3.2311153e-01
 -1.0651655e-01
 -8.4813043e-02
 -1.7599388e+00
 -1.3894936e-02
 -7.3374707e-01
  7.5871259e-01
 -2.8495216e+00
 -6.1169964e-01
  6.7105478e-01
 -4.9345019e-01
  3.2792461e-01
  2.8466545e-02
  1.6049355e-01
 -2.0000605e-01
 -2.0882791e-01
  1.4468765e-01
  8.7436669e-02
  4.3809357e-01
 -6.6853262e-02
  4.3033364e-01
 -3.2090461e-01
  2.0767607e-01
 -2.0493507e-01
 -8.5973418e-01
  2.7130926e-01
 -1.5373927e-01
 -4.0162224e-01
 -1.6246195e-01
 -5.3011781e-01
 -2.1844239e+00
  1.7302634e-01
 -2.1416590e-01
 -3.4233254e-01
  3.7132519e-01
 -2.4347816e-01
 -2.3712325e+00
  5.9319180e-01
  5.4480836e-02
  6.2803012e-01
  2.5822762e-01
  3.9576452e-02
  6.6211611e-02
 -3.0858305e-01
  1.3968611e-01
 -2.8733185e-01
 -1.4788727e-01
 -2.1569200e-01
  4.3365487e-01
 -4.6618834e-02
 -1.0813096e-01
 -1.4924988e-01
 -2.0928403e-02
  2.0390864e-01
  2.4506063e+00
 -2.7151909e+00
  2.4824049e-01
 -6.5413576e-01
 -1.5687323e+00
  1.3021122e+00
  4.8069434e+00
  2.5814433e+00
  3.0850253e-01
  3.0075246e-01
  1.8021519e+00
 -3.7619209e+00
  5.3420085e-01
  1.1774705e-01
  1.2582003e+00
  3.0650574e-01
 -4.4103143e-01
  5.9555399e-01
  6.0961711e-01
 -1.1745617e+00
 -6.3703662e-01
 -1.0308330e+00
  2.2917284e-01
  2.5056684e+00
  2.7647610e+00
 -5.1135415e-01
 -8.6287081e-01
  6.1806190e-01
  1.0905811e-01
  2.3998488e-01
 -7.5931925e-01
 -4.8781201e-01
  2.7815199e-01
 -1.1740352e+00
 -7.5066827e-02
 -5.3258516e-02
 -1.8751431e-02
 -1.6628622e-01
 -1.7264827e-01
 -1.0085582e+00
  5.3875434e-01
 -1.1034743e+00
  8.0971550e-03
  5.1140392e-01
  3.7015605e-01
 -3.3461666e-01
 -1.6912616e+00
  1.6408949e-01
 -4.4176009e-01
 -3.9548084e-01
  1.8575381e-02
 -1.7018248e-01
  1.5727814e-01
  1.8499145e-01
  5.8641177e-01
 -1.5971124e-01
  8.6139277e-02
  2.0640638e-01
  3.3889830e+00
 -2.0634737e+00
  5.1587731e-01
  7.6663303e-01
  3.1924444e-01
 -2.3144118e-01
  2.6932430e-01
 -4.4993657e-01
 -1.0741657e+00
 -5.3357875e-01
  2.7248690e-01
 -1.7211249e+00
 -2.9862571e-01
  5.1946646e-01
  5.0959468e-01
  1.1681891e-01
  1.4741404e-01
 -2.0333101e-01
  8.6269945e-01
 -1.5739398e-01
 -1.7445482e+00
  9.3407799e-03
  8.9988029e-01
 -1.9441140e-01
 -1.9697960e-01
  1.1848921e+00
 -3.1245507e-02
  1.9563487e-01
  8.3870643e-01
 -2.1665613e-01
  4.6830153e-01
  2.0211545e-01
 -2.3407333e-01
  1.0221664e-01
  3.1668693e-02
  1.6058456e+00
  1.0696107e+00
  3.9007004e-02
  6.0525465e-01
  2.0774143e+00
  8.4195358e-01
 -1.8590234e-02
  2.5561833e-01
 -3.5104007e-01
 -6.1360651e-01
  4.4452259e-01
 -3.7462929e-01
  4.9802694e-01
  1.9966111e-01
  3.9567634e-01
  9.0496182e-02
 -1.1644147e-01
  4.0645175e-02
  2.4502675e-01
 -2.1280578e-01
 -3.0608404e-01
 -9.6564688e-02
 -1.0395902e+00
 -2.9294326e+00
  2.5885546e-01
  1.9873396e-01
 -2.8760640e-02
  1.2063394e-01
 -6.4067513e-01
 -3.3629892e+00
  2.6483804e-01
  1.5156810e-01
  4.7868916e-01
 -1.4305821e-01
  2.0003787e-01
 -6.7315125e-01
 -1.1238158e+00
 -7.4644601e-01
  4.9994245e-01
 -1.0661107e-01
  8.6359304e-01
  8.7326032e-01
  7.3054475e-03
  2.6592737e-02
 -2.7431902e-02
 -6.7505759e-01
  1.6362846e-02
  1.1007310e+00
  1.3634284e-01
 -5.6027108e-01
  1.5419011e+00
  1.7629723e-01
 -1.2372635e-01
  1.8209995e-01
 -2.5673351e+00
 -2.3417422e-01
  1.4714478e-01
 -1.0764923e+00
 -5.9557980e-01
 -2.6579002e-01
  7.1037441e-02
 -1.0551589e+00
  3.6476427e-01
 -3.5853046e-01
 -4.3528780e-01
  1.9748653e-01
  4.3208411e-01
  1.0936482e+00
 -4.4081908e-01
  9.8622981e-03
 -3.2592106e-01
 -2.0472071e+00
  3.6531022e-01
 -4.4083547e-02
  9.2058635e-01
 -4.9751306e-01
  7.9807872e-01
  4.5279518e-02
  2.1339533e-01
  3.6923620e-01
 -6.2438333e-01
 -1.1871354e-01
  2.8280953e-01
 -3.3195153e-01
  1.8884978e-01
 -3.3403370e-01
 -1.6317123e-01
 -3.6433652e-01
  4.2189032e-01
 -3.5722682e-01
  4.1242316e-01
 -2.1827338e+00
  1.9455071e-01
  2.5153071e-01
 -1.4378320e-01
  2.6655766e-01
  7.9393797e-02
  1.4383690e-01
 -1.7121400e-01
 -1.0079040e-01
  4.3730909e-01
  3.3929119e-01
 -1.0398703e+00
 -6.4716458e-02
  3.0002577e-02
  4.4578943e-01
 -1.4415118e-01
  2.4965166e-01
  6.8713039e-01
  1.2468649e-01
 -8.6163557e-01
  4.5487654e-01
 -1.7869289e-01
 -2.5218987e-01
 -1.1136707e+00
 -1.2118001e-01
 -6.8019158e-01
  4.1707709e-01
  2.8830498e-01
 -8.6807236e-02
 -1.9271523e+00
 -1.2812088e-01
 -5.2119899e-01
 -1.0507289e+00
  2.2221990e+00
  2.3356202e-01
  1.3875993e+00
  3.5933745e-01
 -3.6867082e-02
  1.1005528e+00
 -6.0897976e-01
 -5.1048417e-02
 -1.3288929e-01
  4.8888686e-01
  6.5401725e-02
 -1.2719186e-01
 -2.1963756e-01
  2.4207689e-01
 -1.1451550e+00
 -1.0799453e+00
  1.7069688e-02
  3.2919365e-01
  2.8960529e-01
  6.5980256e-01
  1.5559055e-01
 -8.5071915e-01
  1.3396727e+00
 -2.0847421e+00
  5.6040752e-01
 -4.5186564e-01
 -6.4263397e-01
  3.5485911e-01
 -1.0539654e-01
 -9.6241087e-01
 -9.9496204e-01
 -1.2615737e-01
 -1.1231835e-01
 -1.0494568e+00
  4.9118298e-01
 -5.6988978e-01
 -1.7088795e-01
  2.3891425e-01
 -1.9419171e-01
  5.6536621e-01
  4.2449561e-01
  1.3254352e+00
  8.9974362e-01
  1.3559054e-01
  2.2671556e-02
  3.1178623e-01
 -5.6944329e-01
 -9.8993117e-03
 -9.4785118e-01
 -2.3838191e+00
 -4.2686489e-01
  1.9573554e-01
  3.0351844e-01
  4.5177850e-01
 -4.8305642e-02
 -1.6515425e-01
 -2.3707349e-02
 -1.3951321e-01
  1.8448362e-01
  2.6129708e-01
  5.0115979e-01
  1.4701106e-01
  1.8199803e-02
  4.2633158e-01
  5.9133697e-01
  1.8804857e+00
 -3.7302157e-01
 -5.8531880e-01
